{"learner":{"attributes":{"best_iteration":"99","best_ntree_limit":"100","scikit_learn":"{\"use_label_encoder\": null, \"n_estimators\": 100, \"objective\": \"binary:logistic\", \"max_depth\": null, \"max_leaves\": null, \"max_bin\": null, \"grow_policy\": null, \"learning_rate\": null, \"verbosity\": null, \"booster\": null, \"tree_method\": null, \"gamma\": null, \"min_child_weight\": null, \"max_delta_step\": null, \"subsample\": null, \"sampling_method\": null, \"colsample_bytree\": null, \"colsample_bylevel\": null, \"colsample_bynode\": null, \"reg_alpha\": null, \"reg_lambda\": null, \"scale_pos_weight\": null, \"base_score\": null, \"missing\": NaN, \"num_parallel_tree\": null, \"random_state\": 42, \"n_jobs\": null, \"monotone_constraints\": null, \"interaction_constraints\": null, \"importance_type\": null, \"gpu_id\": null, \"validate_parameters\": null, \"predictor\": null, \"enable_categorical\": false, \"feature_types\": null, \"max_cat_to_onehot\": null, \"max_cat_threshold\": null, \"eval_metric\": null, \"early_stopping_rounds\": null, \"callbacks\": null, \"classes_\": [0, 1], \"n_classes_\": 2, \"_estimator_type\": \"classifier\"}"},"feature_names":["Pregnancies","Glucose","BloodPressure","SkinThickness","Insulin","BMI","DiabetesPedigreeFunction","Age"],"feature_types":["float","float","float","float","float","float","float","float"],"gradient_booster":{"model":{"gbtree_model_param":{"num_parallel_tree":"1","num_trees":"100","size_leaf_vector":"0"},"tree_info":[0,0,0,0,0,0,0,0,0,0,0,0,0,0,0,0,0,0,0,0,0,0,0,0,0,0,0,0,0,0,0,0,0,0,0,0,0,0,0,0,0,0,0,0,0,0,0,0,0,0,0,0,0,0,0,0,0,0,0,0,0,0,0,0,0,0,0,0,0,0,0,0,0,0,0,0,0,0,0,0,0,0,0,0,0,0,0,0,0,0,0,0,0,0,0,0,0,0,0,0],"trees":[{"base_weights":[-7.87037E-1,-1.3764259E0,1.2716763E-1,-1.6666666E0,-7.126437E-1,-6.4705884E-1,6.055046E-1,-1.7028571E0,-2.2222222E-1,-1.6923077E0,-2.769231E-1,-1E0,1.6666667E-1,1.4925373E-1,1.2173913E0,-1.7380953E0,-5.4545456E-1,-8.5714287E-1,6.666667E-1,5E-1,-1.1818181E0,5.263158E-1,-6.666667E-1,-4.2424244E-1,6.315789E-1,3.529412E-1,1.5151515E0,-1.8120805E0,-9.5652175E-1,-1.4E0,-3.0769232E-1,1.1304348E0,-1E0,-1.3E0,-0E0,8.5714287E-1,-2.2222222E-1,-1.0476191E0,5E-1,1.6666667E-1,1.1111112E0,-6.666667E-1,1E0,-1.8344828E0,-5E-1,-1.2941177E0,-0E0,9.52381E-2,-1.1111112E0,1.3684211E0,-0E0,-1.4666667E0,-5.714286E-1,1.1111112E0,2.2222222E-1,-1.2941177E0,-0E0,8E-1,-0E0,9.0909094E-1,-3.529412E-1,1.4285715E0,-0E0],"categories":[],"categories_nodes":[],"categories_segments":[],"categories_sizes":[],"default_left":[1,1,1,1,1,1,1,1,0,0,1,1,1,1,1,1,0,1,1,0,1,1,0,1,1,1,0,1,1,0,1,1,0,1,0,1,0,1,1,1,1,0,0,0,0,0,0,0,0,0,0,0,0,0,0,0,0,0,0,0,0,0,0],"id":0,"left_children":[1,3,5,7,9,11,13,15,-1,-1,17,19,21,23,25,27,-1,29,31,-1,33,35,-1,37,39,41,-1,43,45,-1,47,49,-1,51,-1,53,-1,55,57,59,61,-1,-1,-1,-1,-1,-1,-1,-1,-1,-1,-1,-1,-1,-1,-1,-1,-1,-1,-1,-1,-1,-1],"loss_changes":[5.836782E1,1.1479431E1,1.640905E1,1.9739685E0,8.815561E0,5.04902E0,7.425787E0,8.362808E-1,0E0,0E0,9.468132E0,3.863636E0,2.1491227E0,4.9011884E0,2.4253273E0,6.953583E-1,0E0,2.7010994E0,6.347826E0,0E0,1.5363636E0,1.3667502E0,0E0,5.277056E0,1.9327481E0,3.4705882E0,0E0,1.7766571E-1,1.8567777E0,0E0,2.2100122E0,1.5469112E0,0E0,3.761902E-1,0E0,3.174603E-1,0E0,1.3557425E0,6E-1,2.6354723E0,1.5873017E0,0E0,0E0,0E0,0E0,0E0,0E0,0E0,0E0,0E0,0E0,0E0,0E0,0E0,0E0,0E0,0E0,0E0,0E0,0E0,0E0,0E0,0E0],"parents":[2147483647,0,0,1,1,2,2,3,3,4,4,5,5,6,6,7,7,10,10,11,11,12,12,13,13,14,14,15,15,17,17,18,18,20,20,21,21,23,23,24,24,25,25,27,27,28,28,30,30,31,31,33,33,35,35,37,37,38,38,39,39,40,40],"right_children":[2,4,6,8,10,12,14,16,-1,-1,18,20,22,24,26,28,-1,30,32,-1,34,36,-1,38,40,42,-1,44,46,-1,48,50,-1,52,-1,54,-1,56,58,60,62,-1,-1,-1,-1,-1,-1,-1,-1,-1,-1,-1,-1,-1,-1,-1,-1,-1,-1,-1,-1,-1,-1],"split_conditions":[1.15195334E-1,-2.4444002E-1,-1.0610689E-1,2.0191407E0,-6.228337E-1,9.1147304E-1,1.176899E0,5.2070355E-1,-6.666667E-2,-5.0769234E-1,-3.8247824E-1,1.8155181E-1,1.6555955E0,1.6861121E-1,5.939747E-1,7.487802E-1,-1.6363637E-1,-9.465083E-1,1.6142905E0,1.5E-1,1.1067523E0,1.8238747E0,-2.0000002E-1,2.7003187E-1,-3.520038E-1,-4.531478E-1,4.5454547E-1,4.883886E-2,2.606025E-1,-4.2000002E-1,-4.82013E-1,6.356462E-1,-3E-1,-4.3947908E-1,-0E0,3.6495742E-1,-6.666667E-2,8.1193835E-1,3.602196E-1,2.756847E-1,1.3523965E0,-2.0000002E-1,3E-1,-5.503449E-1,-1.5E-1,-3.8823533E-1,-0E0,2.857143E-2,-3.3333337E-1,4.1052634E-1,-0E0,-4.4000003E-1,-1.7142859E-1,3.3333337E-1,6.666667E-2,-3.8823533E-1,-0E0,2.4000001E-1,-0E0,2.7272728E-1,-1.0588236E-1,4.2857146E-1,-0E0],"split_indices":[1,7,5,5,5,1,1,0,0,0,1,1,7,7,5,6,0,1,7,0,3,1,0,6,6,6,0,1,5,0,1,5,0,5,0,0,0,1,2,2,5,0,0,0,0,0,0,0,0,0,0,0,0,0,0,0,0,0,0,0,0,0,0],"split_type":[0,0,0,0,0,0,0,0,0,0,0,0,0,0,0,0,0,0,0,0,0,0,0,0,0,0,0,0,0,0,0,0,0,0,0,0,0,0,0,0,0,0,0,0,0,0,0,0,0,0,0,0,0,0,0,0,0,0,0,0,0,0,0],"sum_hessian":[1.07E2,6.475E1,4.225E1,4.4E1,2.075E1,1.6E1,2.625E1,4.275E1,1.25E0,5.5E0,1.525E1,1.1E1,5E0,1.575E1,1.05E1,4.1E1,1.75E0,9.5E0,5.75E0,1E0,1E1,3.75E0,1.25E0,7.25E0,8.5E0,3.25E0,7.25E0,3.625E1,4.75E0,4E0,5.5E0,4.75E0,1E0,9E0,1E0,2.5E0,1.25E0,4.25E0,3E0,5E0,3.5E0,1.25E0,2E0,3.525E1,1E0,3.25E0,1.5E0,4.25E0,1.25E0,3.75E0,1E0,6.5E0,2.5E0,1.25E0,1.25E0,3.25E0,1E0,1.5E0,1.5E0,1.75E0,3.25E0,2.5E0,1E0],"tree_param":{"num_deleted":"0","num_feature":"8","num_nodes":"63","size_leaf_vector":"0"}},{"base_weights":[-5.970967E-1,-1.0641546E0,1.0779494E-1,-1.2832752E0,-5.725392E-1,-8.3437914E-1,3.4459543E-1,-1.3907021E0,-7.534188E-1,-7.822681E-1,6.375732E-1,-1.2558069E0,9.7567873E-4,-2.0328914E-1,6.203493E-1,-1.4624411E0,-4.9943343E-1,1.23767145E-1,-1.2183064E0,-1.3765872E0,-4.4089022E-1,1.2994675E-2,1.0413313E0,-9.814137E-1,8.051124E-1,1.5663609E-1,-8.841408E-1,3.3439094E-1,9.552645E-1,-9.758328E-1,2.2111809E-1,-5.697824E-1,6.9853747E-1,-3.8377246E-1,-1.3346504E0,-1.2062835E0,-9.0050265E-2,6.267543E-1,-5.158726E-1,-1.9087692E-1,-1.1601647E0,8.461834E-1,-8.439827E-2,1.0720186E0,4.684959E-2,2.7308762E-1,-1.1716871E0,-3.877907E-2,1.2472672E0,-9.076918E-1,2.3831053E-1,9.9820364E-1,1.1141767E-1,-7.659402E-1,3.1000742E-1,2.0306212E-1,1.4090847E0],"categories":[],"categories_nodes":[],"categories_segments":[],"categories_sizes":[],"default_left":[1,1,1,1,1,1,1,1,1,1,1,0,1,1,1,0,1,1,1,0,1,0,0,0,0,1,1,1,1,0,0,0,0,0,0,0,1,1,1,0,0,1,1,1,0,0,0,0,0,0,0,0,0,0,0,0,0],"id":1,"left_children":[1,3,5,7,9,11,13,15,17,19,21,-1,23,25,27,-1,29,31,33,-1,35,-1,-1,-1,-1,37,39,41,43,-1,-1,-1,-1,-1,-1,-1,45,47,49,-1,-1,51,53,55,-1,-1,-1,-1,-1,-1,-1,-1,-1,-1,-1,-1,-1],"loss_changes":[3.4192837E1,5.981819E0,9.693717E0,1.361206E0,5.8356037E0,3.0851932E0,5.3232646E0,1.4438782E0,3.9499664E0,3.1203337E0,9.087069E-1,0E0,3.9000673E0,3.1453698E0,1.8957243E0,0E0,1.6066532E0,2.0463364E0,8.797836E-2,0E0,3.4198096E0,0E0,0E0,0E0,0E0,3.1296668E0,6.193421E-1,3.0753484E0,1.0225096E0,0E0,0E0,0E0,0E0,0E0,0E0,0E0,4.283367E0,2.3923104E0,1.4575988E0,0E0,0E0,6.0343075E-1,2.5538058E0,2.3255281E0,0E0,0E0,0E0,0E0,0E0,0E0,0E0,0E0,0E0,0E0,0E0,0E0,0E0],"parents":[2147483647,0,0,1,1,2,2,3,3,4,4,5,5,6,6,7,7,8,8,9,9,10,10,12,12,13,13,14,14,16,16,17,17,18,18,20,20,25,25,26,26,27,27,28,28,36,36,37,37,38,38,41,41,42,42,43,43],"right_children":[2,4,6,8,10,12,14,16,18,20,22,-1,24,26,28,-1,30,32,34,-1,36,-1,-1,-1,-1,38,40,42,44,-1,-1,-1,-1,-1,-1,-1,46,48,50,-1,-1,52,54,56,-1,-1,-1,-1,-1,-1,-1,-1,-1,-1,-1,-1,-1],"split_conditions":[1.15195334E-1,-2.4444002E-1,-7.401015E-1,-2.4976529E-1,1.3556442E0,2.8014627E-1,-1.0610689E-1,1.2696351E0,-1.9631025E-1,-8.137953E-1,4.55221E-1,-3.767421E-1,-3.144645E-1,1.6555955E0,1.176899E0,-4.3873236E-1,4.9294364E-2,-1.8111563E-1,-2.1658705E-1,-4.1297618E-1,-6.228337E-1,3.8984027E-3,3.123994E-1,-2.9442412E-1,2.4153374E-1,6.995452E-1,-1.1145577E0,3.8561708E-1,1.2696351E0,-2.9274985E-1,6.633543E-2,-1.7093472E-1,2.0956124E-1,-1.1513174E-1,-4.0039513E-1,-3.6188504E-1,9.519639E-1,-1.5558955E-1,4.9905217E-1,-5.7263076E-2,-3.4804943E-1,8.782948E-1,1.6861121E-1,-6.245489E-2,1.4054878E-2,8.1926286E-2,-3.5150614E-1,-1.1633721E-2,3.741802E-1,-2.7230754E-1,7.149316E-2,2.994611E-1,3.3425305E-2,-2.2978206E-1,9.300223E-2,6.0918637E-2,4.227254E-1],"split_indices":[1,7,7,1,6,6,5,3,3,1,3,0,5,7,1,0,4,5,1,0,5,0,0,0,0,3,5,5,3,0,0,0,0,0,0,0,2,3,7,0,0,1,7,2,0,0,0,0,0,0,0,0,0,0,0,0,0],"split_type":[0,0,0,0,0,0,0,0,0,0,0,0,0,0,0,0,0,0,0,0,0,0,0,0,0,0,0,0,0,0,0,0,0,0,0,0,0,0,0,0,0,0,0,0,0,0,0,0,0,0,0,0,0,0,0,0,0],"sum_hessian":[1.0251005E2,6.135009E1,4.1159958E1,4.1321938E1,2.002815E1,7.760235E0,3.3399723E1,3.3005493E1,8.316446E0,1.7371067E1,2.657084E0,4.8235054E0,2.9367292E0,1.1270196E1,2.2129526E1,2.9953646E1,3.0518477E0,3.13495E0,5.181496E0,5.231275E0,1.21397915E1,1.4485257E0,1.2085583E0,1.2226269E0,1.7141024E0,7.876373E0,3.393823E0,1.3015245E1,9.114282E0,1.623903E0,1.4279447E0,1.4246124E0,1.7103375E0,1.1599307E0,4.0215654E0,3.0492556E0,9.090536E0,4.6757903E0,3.2005827E0,1.4481531E0,1.9456697E0,5.397968E0,7.6172776E0,7.91669E0,1.1975917E0,7.365306E0,1.72523E0,2.7083955E0,1.9673946E0,1.9723493E0,1.2282333E0,4.175533E0,1.2224346E0,2.446925E0,5.1703525E0,2.6604602E0,5.2562294E0],"tree_param":{"num_deleted":"0","num_feature":"8","num_nodes":"57","size_leaf_vector":"0"}},{"base_weights":[-4.831619E-1,-1.0067192E0,-4.416324E-2,-1.09847E0,-1.0548891E-1,-2.7556315E-1,5.9595317E-1,-1.1387908E0,-2.3330039E-1,-8.3309555E-1,3.5751405E-1,-1.0259582E0,-3.762141E-2,7.486817E-1,-6.135253E-1,-1.1698204E0,-2.693969E-1,-1.749438E-1,6.7015004E-1,-4.1015154E-1,-1.153259E0,-4.6697032E-1,3.4331992E-1,1.7485549E-1,9.4491446E-1,-1.2204657E0,-3.8602883E-1,-7.892422E-1,1.6369157E-1,2.619754E-1,-8.352143E-1,5.848167E-1,-3.8483667E-1,-6.4657116E-1,6.590923E-1,1.0642579E0,5.152248E-2,-2.665528E-1,-1.2435414E0,4.7178575E-1,-9.691959E-1,1.1901176E0,-3.2410115E-1,-1.0731217E0,1.2805238E-1,9.6620166E-1,-7.1081065E-2,-8.738782E-1,6.2442094E-1,9.1259027E-1,1.0329906E-1,1.2029446E0,2.7433598E-1],"categories":[],"categories_nodes":[],"categories_segments":[],"categories_sizes":[],"default_left":[1,1,1,1,1,1,1,1,0,0,1,1,1,1,0,1,0,0,0,1,0,1,1,1,1,1,1,0,0,1,1,1,1,0,1,1,0,0,0,0,0,0,0,0,0,0,0,0,0,0,0,0,0],"id":2,"left_children":[1,3,5,7,9,11,13,15,-1,-1,17,19,21,23,-1,25,-1,-1,-1,27,-1,29,31,33,35,37,39,-1,-1,41,43,45,47,-1,49,51,-1,-1,-1,-1,-1,-1,-1,-1,-1,-1,-1,-1,-1,-1,-1,-1,-1],"loss_changes":[2.194703E1,3.4886932E0,8.027957E0,1.1107864E0,2.0274441E0,7.045764E0,3.121572E0,6.9495773E-1,0E0,0E0,7.5601447E-1,2.7283192E-1,5.2572284E0,1.3263974E0,0E0,9.520912E-1,0E0,0E0,0E0,8.213578E-1,0E0,4.2652016E0,3.2300487E0,2.2569394E0,9.734106E-1,3.9966583E-1,2.2775226E0,0E0,0E0,3.5518744E0,2.4872546E0,3.3780322E0,2.9439788E0,0E0,3.8347912E-1,5.964279E-1,0E0,0E0,0E0,0E0,0E0,0E0,0E0,0E0,0E0,0E0,0E0,0E0,0E0,0E0,0E0,0E0,0E0],"parents":[2147483647,0,0,1,1,2,2,3,3,4,4,5,5,6,6,7,7,10,10,11,11,12,12,13,13,15,15,19,19,21,21,22,22,23,23,24,24,25,25,26,26,29,29,30,30,31,31,32,32,34,34,35,35],"right_children":[2,4,6,8,10,12,14,16,-1,-1,18,20,22,24,-1,26,-1,-1,-1,28,-1,30,32,34,36,38,40,-1,-1,42,44,46,48,-1,50,52,-1,-1,-1,-1,-1,-1,-1,-1,-1,-1,-1,-1,-1,-1,-1,-1,-1],"split_conditions":[-2.4976529E-1,1.3556442E0,1.176899E0,1.7666728E0,-6.1618614E-1,-6.228337E-1,2.151257E0,1.369065E0,-6.999012E-2,-2.4992867E-1,3.330589E-1,-6.1193174E-1,-1.6182977E-1,-2.3152469E-1,-1.840576E-1,7.605803E-1,-8.081907E-2,-5.2483145E-2,2.0104502E-1,-7.252657E-1,-3.4597772E-1,-8.071208E-1,9.519639E-1,-4.5651928E-1,1.1881937E0,-1.7531528E0,9.5443964E-1,-2.3677267E-1,4.9107473E-2,-8.227117E-1,-4.0966052E-1,5.9627986E-1,5.796907E-1,-1.9397135E-1,5.532351E-1,1.4551806E0,1.54567445E-2,-7.9965845E-2,-3.7306243E-1,1.4153573E-1,-2.907588E-1,3.5703528E-1,-9.723035E-2,-3.2193652E-1,3.8415715E-2,2.8986052E-1,-2.132432E-2,-2.6216346E-1,1.8732628E-1,2.737771E-1,3.098972E-2,3.608834E-1,8.23008E-2],"split_indices":[1,6,1,0,7,5,7,5,0,0,3,2,7,2,0,6,0,0,0,0,0,3,2,6,3,2,6,0,0,7,7,1,1,0,6,0,0,0,0,0,0,0,0,0,0,0,0,0,0,0,0,0,0],"split_type":[0,0,0,0,0,0,0,0,0,0,0,0,0,0,0,0,0,0,0,0,0,0,0,0,0,0,0,0,0,0,0,0,0,0,0,0,0,0,0,0,0,0,0,0,0,0,0,0,0,0,0,0,0],"sum_hessian":[9.4681335E1,4.259208E1,5.208926E1,3.8457966E1,4.134114E0,3.867712E1,1.3412137E1,3.6443275E1,2.0146878E0,1.2968266E0,2.837287E0,8.514189E0,3.0162933E1,1.2246661E1,1.1654762E0,3.4853752E1,1.5895257E0,1.2125639E0,1.6247232E0,2.1818054E0,6.332383E0,1.4074313E1,1.608862E1,3.6026905E0,8.6439705E0,3.2215023E1,2.6387262E0,1.0878142E0,1.0939912E0,4.8205423E0,9.253771E0,1.2229499E1,3.8591208E0,1.2118139E0,2.3908765E0,7.456626E0,1.1873448E0,1.0573444E0,3.115768E1,1.1451912E0,1.493535E0,1.4668725E0,3.35367E0,7.3294907E0,1.92428E0,7.4338427E0,4.7956557E0,2.6898677E0,1.1692532E0,1.2010957E0,1.189781E0,5.8982096E0,1.5584161E0],"tree_param":{"num_deleted":"0","num_feature":"8","num_nodes":"53","size_leaf_vector":"0"}},{"base_weights":[-3.91297E-1,-8.4489477E-1,-3.389728E-2,-1.0635132E0,-4.5323095E-1,-4.5442724E-1,2.608743E-1,-1.1448061E0,-2.8811377E-1,-5.9349877E-1,4.4774172E-1,-8.6702895E-1,-1.8150938E-1,-1.5446547E-1,5.165029E-1,-7.161929E-1,2.362824E-1,-1.068489E0,-2.661373E-1,-1.0282356E0,-1.8076232E-2,-8.742033E-1,-9.123163E-3,4.160755E-1,-7.4408174E-1,1.422162E-1,7.65519E-1,2.0177658E-1,-8.2206917E-1,6.501616E-1,-2.5572062E-1,-4.248566E-1,7.0431536E-1,-1.0680917E-1,-1.0656358E0,4.5405743E-1,-6.635863E-1,8.7939864E-1,-1.4860305E-1,-3.133622E-1,8.814822E-1,-3.408159E-1,-9.9368036E-1,-2.634899E-1,1.1904604E0,2.3567997E-1,-8.256292E-1,-5.530602E-3,1.0354466E0,3.688239E-1,-5.1708364E-1,-3.4469914E-1,7.000361E-1,1.4370853E-1,1.0389676E0],"categories":[],"categories_nodes":[],"categories_segments":[],"categories_sizes":[],"default_left":[1,1,1,1,1,1,1,0,1,1,0,1,1,1,1,0,0,0,1,0,0,0,1,1,1,1,1,1,1,1,1,0,1,1,0,1,0,1,0,0,0,0,0,0,0,0,0,0,0,0,0,0,0,0,0],"id":3,"left_children":[1,3,5,7,9,11,13,-1,15,17,-1,19,21,23,25,-1,-1,-1,27,-1,-1,-1,29,31,33,35,37,39,41,43,45,-1,47,49,-1,51,-1,53,-1,-1,-1,-1,-1,-1,-1,-1,-1,-1,-1,-1,-1,-1,-1,-1,-1],"loss_changes":[1.4134224E1,2.8109608E0,6.3047214E0,1.1791382E0,2.2270303E0,2.199483E0,3.262248E0,0E0,9.791373E-1,1.870574E0,0E0,1.0855551E0,1.647321E0,4.4101725E0,1.6419425E0,0E0,0E0,0E0,2.6464622E0,0E0,0E0,0E0,2.135142E0,1.9563006E0,1.1880665E0,2.4957337E0,1.281187E0,2.3703668E0,3.7544012E-2,2.0804071E0,2.8638952E0,0E0,1.2908802E0,8.2336175E-1,0E0,1.595033E0,0E0,1.021358E0,0E0,0E0,0E0,0E0,0E0,0E0,0E0,0E0,0E0,0E0,0E0,0E0,0E0,0E0,0E0,0E0,0E0],"parents":[2147483647,0,0,1,1,2,2,3,3,4,4,5,5,6,6,8,8,9,9,11,11,12,12,13,13,14,14,18,18,22,22,23,23,24,24,25,25,26,26,27,27,28,28,29,29,30,30,32,32,33,33,35,35,37,37],"right_children":[2,4,6,8,10,12,14,-1,16,18,-1,20,22,24,26,-1,-1,-1,28,-1,-1,-1,30,32,34,36,38,40,42,44,46,-1,48,50,-1,52,-1,54,-1,-1,-1,-1,-1,-1,-1,-1,-1,-1,-1,-1,-1,-1,-1,-1,-1],"split_conditions":[-2.4976529E-1,-4.0966052E-1,-1.0610689E-1,1.2696351E0,1.3556442E0,-4.1377336E-1,3.4744298E-1,-3.4344184E-1,4.9294364E-2,-8.137953E-1,1.3432252E-1,-2.031349E-1,-1.2479067E0,6.1064327E-1,5.939747E-1,-2.1485788E-1,7.088472E-2,-3.205467E-1,-2.3231673E-1,-3.0847067E-1,-5.4228697E-3,-2.62261E-1,-7.895199E-1,-7.401015E-1,-5.981209E-1,3.8561708E-1,2.0400522E0,-6.5037864E-1,-4.82013E-1,6.2945807E-1,3.9721036E-1,-1.27457E-1,-4.1377336E-1,4.8702195E-1,-3.1969076E-1,-5.74881E-1,-1.9907591E-1,-7.1106505E-1,-4.4580918E-2,-9.400867E-2,2.6444468E-1,-1.0224477E-1,-2.981041E-1,-7.904697E-2,3.5713816E-1,7.070399E-2,-2.4768876E-1,-1.6591806E-3,3.1063402E-1,1.1064717E-1,-1.551251E-1,-1.03409745E-1,2.1001084E-1,4.311256E-2,3.116903E-1],"split_indices":[1,7,5,3,6,0,1,0,4,1,0,7,5,5,5,0,0,0,6,0,0,0,5,7,6,5,6,6,1,1,1,0,0,2,0,7,0,6,0,0,0,0,0,0,0,0,0,0,0,0,0,0,0,0,0],"split_type":[0,0,0,0,0,0,0,0,0,0,0,0,0,0,0,0,0,0,0,0,0,0,0,0,0,0,0,0,0,0,0,0,0,0,0,0,0,0,0,0,0,0,0,0,0,0,0,0,0,0,0,0,0,0,0],"sum_hessian":[8.636267E1,3.745819E1,4.8904476E1,2.2938843E1,1.4519348E1,1.9930048E1,2.8974428E1,2.0330938E1,2.607905E0,1.285871E1,1.6606379E0,7.067858E0,1.286219E1,1.1189582E1,1.7784847E1,1.2344453E0,1.3734597E0,4.322692E0,8.536019E0,5.7624516E0,1.3054066E0,1.7517996E0,1.1110391E1,5.8363647E0,5.3532176E0,7.7329116E0,1.0051935E1,4.980829E0,3.55519E0,2.5789552E0,8.531436E0,1.3688405E0,4.467524E0,2.2420242E0,3.1111937E0,5.8900204E0,1.8428911E0,8.972182E0,1.0797523E0,3.1400247E0,1.8408043E0,1.7194033E0,1.8357868E0,1.1487429E0,1.4302123E0,4.896186E0,3.6352496E0,1.7338878E0,2.7336364E0,1.0850973E0,1.1569268E0,1.292288E0,4.5977325E0,1.9379411E0,7.0342417E0],"tree_param":{"num_deleted":"0","num_feature":"8","num_nodes":"55","size_leaf_vector":"0"}},{"base_weights":[-3.2802442E-1,-8.8288784E-1,-1.0601858E-1,-1.0246761E0,-1.5178633E-1,-6.1950827E-1,4.9209435E-2,-1.0918882E0,6.238687E-2,-7.084097E-1,7.550223E-1,8.8912934E-2,-8.9394766E-1,-3.039397E-1,2.4143365E-1,-4.3034577E-1,-1.13593E0,-4.3185624E-1,7.8473175E-1,-1.0222534E0,1.0273448E-1,-4.7324947E-1,2.693502E-1,5.6874084E-1,3.1058323E-2,-1.1721464E0,-3.5994458E-1,-7.285062E-1,1.1134681E-1,-1.5381421E-1,-1.113765E0,-9.570089E-2,-7.629627E-1,6.4642906E-1,-1.6670826E-1,7.201079E-1,-1.7449333E-1,-1.3098073E-1,9.1455775E-1,3.6984372E-1,-5.633807E-1,-9.7281265E-1,-1.316127E-1,3.5351178E-1,1.1168059E0,-5.176789E-1,1.0910283E-1],"categories":[],"categories_nodes":[],"categories_segments":[],"categories_sizes":[],"default_left":[1,1,1,1,1,1,1,1,0,0,0,1,1,1,1,0,1,1,0,1,0,1,1,1,1,0,0,0,0,0,0,1,1,0,0,1,0,1,0,0,0,0,0,0,0,0,0],"id":4,"left_children":[1,3,5,7,9,11,13,15,-1,-1,-1,17,19,21,23,-1,25,27,-1,29,-1,31,33,35,37,-1,-1,-1,-1,-1,-1,39,41,-1,-1,43,-1,45,-1,-1,-1,-1,-1,-1,-1,-1,-1],"loss_changes":[9.720549E0,2.1904583E0,4.6567497E0,1.4403458E0,2.9829073E0,2.7131424E0,3.1616762E0,2.807045E-2,0E0,0E0,0E0,2.0390937E0,1.3651915E0,1.7268457E0,2.0491734E0,0E0,2.8430939E-2,6.1748964E-1,0E0,5.2977085E-1,0E0,1.358067E0,8.302828E-1,1.4403963E0,2.887063E0,0E0,0E0,0E0,0E0,0E0,0E0,1.6941335E0,8.3376074E-1,0E0,0E0,1.0455394E0,0E0,1.6541355E0,0E0,0E0,0E0,0E0,0E0,0E0,0E0,0E0,0E0],"parents":[2147483647,0,0,1,1,2,2,3,3,4,4,5,5,6,6,7,7,11,11,12,12,13,13,14,14,16,16,17,17,19,19,21,21,22,22,23,23,24,24,31,31,32,32,35,35,37,37],"right_children":[2,4,6,8,10,12,14,16,-1,-1,-1,18,20,22,24,-1,26,28,-1,30,-1,32,34,36,38,-1,-1,-1,-1,-1,-1,40,42,-1,-1,44,-1,46,-1,-1,-1,-1,-1,-1,-1,-1,-1],"split_conditions":[-5.815477E-1,2.4715331E-1,-7.401015E-1,2.4715998E0,-6.5749127E-1,-8.885622E-1,-1.7278132E-1,-9.588679E-1,1.8716061E-2,-2.1252292E-1,2.265067E-1,-2.5423127E-1,1.1271317E0,9.1147304E-1,3.8561708E-1,-1.2910374E-1,1.2425444E0,1.066149E-1,2.3541953E-1,-1.231238E0,3.0820344E-2,1.066149E-1,-7.8118557E-1,1.1067523E0,2.0395331E0,-3.5164395E-1,-1.0798338E-1,-2.1855187E-1,3.3404045E-2,-4.6144266E-2,-3.341295E-1,-1.9017339E-1,5.366624E-1,1.9392873E-1,-5.001248E-2,1.2945537E-1,-5.2348E-2,7.439922E-1,2.7436733E-1,1.1095312E-1,-1.6901422E-1,-2.918438E-1,-3.948381E-2,1.0605354E-1,3.350418E-1,-1.5530369E-1,3.273085E-2],"split_indices":[1,4,7,6,7,3,5,6,0,0,0,6,1,1,5,0,7,2,0,5,0,2,5,3,1,0,0,0,0,0,0,6,3,0,0,3,0,5,0,0,0,0,0,0,0,0,0],"split_type":[0,0,0,0,0,0,0,0,0,0,0,0,0,0,0,0,0,0,0,0,0,0,0,0,0,0,0,0,0,0,0,0,0,0,0,0,0,0,0,0,0,0,0,0,0,0,0],"sum_hessian":[7.867137E1,2.163121E1,5.704016E1,1.7781208E1,3.8500009E0,1.2546327E1,4.449383E1,1.674165E1,1.0395601E0,2.5212054E0,1.3287954E0,3.6920123E0,8.854315E0,1.5477611E1,2.9016222E1,1.7173269E0,1.5024322E1,2.3285897E0,1.3634226E0,7.8217435E0,1.0325711E0,1.2083494E1,3.3941166E0,1.0686477E1,1.8329744E1,1.3866619E1,1.1577027E0,1.2854557E0,1.043134E0,1.0012039E0,6.8205395E0,5.824044E0,6.25945E0,1.5614369E0,1.8326797E0,8.904169E0,1.7823075E0,1.6208717E1,2.1210275E0,3.0235214E0,2.8005228E0,4.2920127E0,1.9674371E0,5.6105185E0,3.2936506E0,5.7657247E0,1.0442993E1],"tree_param":{"num_deleted":"0","num_feature":"8","num_nodes":"47","size_leaf_vector":"0"}},{"base_weights":[-2.6729584E-1,-7.792735E-1,-8.24033E-2,-9.2488164E-1,-1.15839705E-1,-5.8487266E-1,3.8199447E-2,-9.9784666E-1,5.2729912E-2,-6.113585E-1,6.097583E-1,-9.098541E-1,-2.392402E-3,2.337903E-1,-2.4424659E-1,-3.7006098E-1,-1.0454491E0,-1.0245037E0,-1.2730478E-1,-6.92176E-1,5.3134674E-1,3.615916E-1,-4.6854627E-1,-4.6704218E-1,4.0174076E-1,-1.0878273E0,-3.096447E-1,7.193412E-1,1.1287142E-1,-1.0806712E-1,4.9737564E-1,-8.745817E-1,7.4891485E-2,-7.43531E-1,4.9659774E-1,-2.6437044E-1,6.301235E-1,-4.2022187E-1,3.5080525E-1,2.558664E-1,7.208975E-1,-8.5007036E-1,1.9007455E-1,8.9963007E-1,-1.2725364E-1,9.5216817E-1,-1.1851163E-1],"categories":[],"categories_nodes":[],"categories_segments":[],"categories_sizes":[],"default_left":[1,1,1,1,1,1,1,1,0,0,0,1,1,1,1,0,1,0,0,0,1,1,1,1,1,0,0,0,0,1,1,0,0,1,1,0,1,0,0,0,0,0,0,0,0,0,0],"id":5,"left_children":[1,3,5,7,9,11,13,15,-1,-1,-1,17,19,21,23,-1,25,-1,-1,-1,27,29,31,33,35,-1,-1,-1,-1,37,39,-1,-1,41,43,-1,45,-1,-1,-1,-1,-1,-1,-1,-1,-1,-1],"loss_changes":[6.8912106E0,1.7646704E0,3.3613977E0,1.1758108E0,2.0376692E0,2.028332E0,2.5637372E0,5.2498817E-2,0E0,0E0,0E0,4.8707485E-1,2.1512067E0,2.6216505E0,2.9299455E0,0E0,7.2221756E-2,0E0,0E0,0E0,1.7815912E-1,1.5637743E0,1.0896782E0,4.2672224E0,9.9171555E-1,0E0,0E0,0E0,0E0,1.0257475E0,8.167348E-1,0E0,0E0,1.3321648E0,1.0853546E0,0E0,1.1578947E0,0E0,0E0,0E0,0E0,0E0,0E0,0E0,0E0,0E0,0E0],"parents":[2147483647,0,0,1,1,2,2,3,3,4,4,5,5,6,6,7,7,11,11,12,12,13,13,14,14,16,16,20,20,21,21,22,22,23,23,24,24,29,29,30,30,33,33,34,34,36,36],"right_children":[2,4,6,8,10,12,14,16,-1,-1,-1,18,20,22,24,-1,26,-1,-1,-1,28,30,32,34,36,-1,-1,-1,-1,38,40,-1,-1,42,44,-1,46,-1,-1,-1,-1,-1,-1,-1,-1,-1,-1],"split_conditions":[-5.815477E-1,2.4715331E-1,-7.2284544E-1,2.4715998E0,-6.5749127E-1,4.4697773E-1,-5.2906257E-1,-9.588679E-1,1.5818974E-2,-1.8340756E-1,1.829275E-1,6.139215E-1,-4.1377336E-1,1.6142905E0,1.176899E0,-1.110183E-1,1.2425444E0,-3.073511E-1,-3.8191434E-2,-2.076528E-1,1.066149E-1,-8.1389475E-1,-3.1098146E-2,5.816624E-1,-4.7674808E-1,-3.2634822E-1,-9.2893414E-2,2.1580237E-1,3.386143E-2,5.2070355E-1,2.0921126E-1,-2.6237452E-1,2.2467446E-2,1.3792446E0,1.1067523E0,-7.931113E-2,9.9471366E-1,-1.2606657E-1,1.0524158E-1,7.675993E-2,2.1626925E-1,-2.5502113E-1,5.7022367E-2,2.6988903E-1,-3.8176093E-2,2.8565046E-1,-3.5553493E-2],"split_indices":[1,4,5,6,7,1,4,6,0,0,0,6,0,7,1,0,7,0,0,0,2,6,5,7,6,0,0,0,0,0,0,0,0,6,3,0,7,0,0,0,0,0,0,0,0,0,0],"split_type":[0,0,0,0,0,0,0,0,0,0,0,0,0,0,0,0,0,0,0,0,0,0,0,0,0,0,0,0,0,0,0,0,0,0,0,0,0,0,0,0,0,0,0,0,0,0,0],"sum_hessian":[7.247731E1,1.8376638E1,5.4100674E1,1.4746128E1,3.6305106E0,9.726675E0,4.4374E1,1.3702714E1,1.0434147E0,2.2508335E0,1.3796769E0,5.882587E0,3.844088E0,2.631997E1,1.805403E1,1.5841942E0,1.211852E1,4.861196E0,1.0213908E0,1.5474198E0,2.296668E0,2.2678427E1,3.6415422E0,1.3630125E1,4.423905E0,1.1006205E1,1.1123148E0,1.0886494E0,1.2080188E0,5.1319213E0,1.7546505E1,1.7354966E0,1.9060456E0,1.0768754E1,2.8613708E0,1.0892817E0,3.334623E0,3.1043622E0,2.0275593E0,9.464778E0,8.081728E0,9.746049E0,1.0227046E0,1.4697783E0,1.3915926E0,2.1415207E0,1.1931024E0],"tree_param":{"num_deleted":"0","num_feature":"8","num_nodes":"47","size_leaf_vector":"0"}},{"base_weights":[-2.2012363E-1,-5.630062E-1,-6.0935016E-3,-8.7823147E-1,-3.1523177E-1,-8.8686657E-1,6.3695736E-2,-1.0042812E0,-1.524474E-1,-4.7258252E-1,3.935705E-1,-6.0576703E-2,3.9683908E-1,-1.6728869E-1,-8.701279E-1,-5.711937E-2,6.0160166E-1,1.5086873E-1,-3.4840947E-1,-2.9269427E-2,6.4778465E-1,-7.17821E-1,5.2626096E-2,-2.6437688E-1,3.202247E-1,-5.6740487E-1,4.3400684E-1,-4.9891928E-1,7.6331586E-1,8.961558E-1,-3.3146113E-1,7.260618E-1,-2.6164246E-1,7.323405E-2,-7.475077E-1,5.080064E-1,-2.4713738E-1,1.4331305E-1,-7.038093E-1,-2.1034095E-3,6.2205917E-1,-1.0340753E0,2.071716E-1,9.95328E-1,3.0672786E-1],"categories":[],"categories_nodes":[],"categories_segments":[],"categories_sizes":[],"default_left":[1,1,1,1,1,0,1,0,0,1,1,1,1,1,0,0,0,1,1,1,1,0,1,1,1,1,1,1,0,1,0,0,0,0,0,0,0,0,0,0,0,0,0,0,0],"id":6,"left_children":[1,3,5,7,9,-1,11,-1,-1,13,15,17,19,21,-1,-1,-1,23,25,27,29,-1,31,33,35,37,39,41,-1,43,-1,-1,-1,-1,-1,-1,-1,-1,-1,-1,-1,-1,-1,-1,-1],"loss_changes":[4.97649E0,1.7591877E0,2.6867363E0,8.45232E-1,1.9878225E0,0E0,1.7041371E0,0E0,0E0,1.5141411E0,3.6068743E-1,1.9041829E0,1.2120622E0,1.1241332E0,0E0,0E0,0E0,1.3671691E0,2.5057418E0,2.2763882E0,2.0154757E0,0E0,1.7441286E0,1.0058299E0,1.5538379E0,1.1417007E0,2.8427786E-1,1.6510079E0,0E0,3.9937973E-2,0E0,0E0,0E0,0E0,0E0,0E0,0E0,0E0,0E0,0E0,0E0,0E0,0E0,0E0,0E0],"parents":[2147483647,0,0,1,1,2,2,3,3,4,4,6,6,9,9,10,10,11,11,12,12,13,13,17,17,18,18,19,19,20,20,22,22,23,23,24,24,25,25,26,26,27,27,29,29],"right_children":[2,4,6,8,10,-1,12,-1,-1,14,16,18,20,22,-1,-1,-1,24,26,28,30,-1,32,34,36,38,40,42,-1,44,-1,-1,-1,-1,-1,-1,-1,-1,-1,-1,-1,-1,-1,-1,-1],"split_conditions":[-2.4976529E-1,-6.5749127E-1,-1.2479067E0,7.201227E-1,1.3556442E0,-2.6606E-1,1.176899E0,-3.0128437E-1,-4.5734223E-2,-2.3231673E-1,3.330589E-1,-5.2906257E-1,-6.245489E-2,-7.2284544E-1,-2.610384E-1,-1.7135812E-2,1.8048051E-1,-4.1377336E-1,5.816624E-1,9.438695E-1,1.1067523E0,-2.153463E-1,-4.0059447E-1,4.959417E-1,9.519639E-1,-7.6838E-1,6.175047E-1,-4.5651928E-1,2.2899477E-1,1.5729854E0,-9.943835E-2,2.1781856E-1,-7.849274E-2,2.1970216E-2,-2.2425231E-1,1.5240192E-1,-7.414122E-2,4.2993918E-2,-2.1114281E-1,-6.3102285E-4,1.8661776E-1,-3.102226E-1,6.2151484E-2,2.985984E-1,9.201836E-2],"split_indices":[1,7,5,6,6,0,1,0,0,6,3,4,2,5,0,0,0,0,7,3,3,0,2,3,2,6,4,6,0,7,0,0,0,0,0,0,0,0,0,0,0,0,0,0,0],"split_type":[0,0,0,0,0,0,0,0,0,0,0,0,0,0,0,0,0,0,0,0,0,0,0,0,0,0,0,0,0,0,0,0,0,0,0,0,0,0,0,0,0,0,0,0,0],"sum_hessian":[6.685816E1,2.5067995E1,4.1790165E1,9.912531E0,1.5155465E1,2.2086155E0,3.958155E1,8.11879E0,1.7937406E0,1.2674952E1,2.480513E0,2.9423769E1,1.0157782E1,7.9729514E0,4.702E0,1.0124707E0,1.4680424E0,1.7237062E1,1.21867075E1,4.0923266E0,6.065455E0,1.6295263E0,6.3434253E0,4.830946E0,1.24061165E1,9.736345E0,2.4503622E0,2.8023176E0,1.2900089E0,4.9059772E0,1.1594775E0,1.6014366E0,4.7419887E0,3.3431656E0,1.4877803E0,9.399688E0,3.0064287E0,1.5595998E0,8.176745E0,1.0361806E0,1.4141816E0,1.3298777E0,1.4724398E0,3.6099615E0,1.2960159E0],"tree_param":{"num_deleted":"0","num_feature":"8","num_nodes":"45","size_leaf_vector":"0"}},{"base_weights":[-1.8177374E-1,-6.766112E-1,-5.0519507E-2,-9.189784E-1,-2.5347147E-2,-4.859761E-1,5.2564103E-2,-5.749018E-1,3.7690935E-1,2.050397E-1,-7.4059534E-1,1.2078284E-1,-4.9735644E-1,5.2868253E-1,2.6963828E-2,-1.8678567E-1,5.0559765E-1,-9.345855E-1,-6.433102E-2,-4.3163466E-1,1.8902421E-1,-8.8421965E-1,1.628348E-2,-6.0863906E-1,7.114986E-2,2.8917676E-1,-2.1664408E-1,2.4133399E-1,-2.1562491E-1,3.0543763E-2,4.5693335E-1,-6.671262E-1,4.6142074E-1],"categories":[],"categories_nodes":[],"categories_segments":[],"categories_sizes":[],"default_left":[1,1,1,0,1,1,1,0,1,1,1,1,1,0,0,0,0,0,0,1,1,0,1,0,0,1,1,0,0,0,0,0,0],"id":7,"left_children":[1,3,5,-1,7,9,11,-1,13,15,17,19,21,-1,-1,-1,-1,-1,-1,23,25,-1,27,-1,-1,29,31,-1,-1,-1,-1,-1,-1],"loss_changes":[4.0632105E0,2.0515265E0,2.312214E0,0E0,1.2321135E0,1.8846383E0,1.639177E0,0E0,1.586859E-1,4.9895698E-1,9.1244125E-1,1.5236008E0,9.763086E-1,0E0,0E0,0E0,0E0,0E0,0E0,4.4470352E-1,1.4741546E0,0E0,2.1182428E-1,0E0,0E0,1.2135184E0,2.583637E0,0E0,0E0,0E0,0E0,0E0,0E0],"parents":[2147483647,0,0,1,1,2,2,4,4,5,5,6,6,8,8,9,9,10,10,11,11,12,12,19,19,20,20,22,22,25,25,26,26],"right_children":[2,4,6,-1,8,10,12,-1,14,16,18,20,22,-1,-1,-1,-1,-1,-1,24,26,-1,28,-1,-1,30,32,-1,-1,-1,-1,-1,-1],"split_conditions":[-7.2284544E-1,4.4697773E-1,-7.401015E-1,-2.7569354E-1,-4.1377336E-1,-8.071208E-1,1.7382059E0,-1.7247055E-1,1.6969007E0,1.066149E-1,7.285514E-1,-9.133301E-1,7.4558187E-1,1.5860477E-1,8.089148E-3,-5.60357E-2,1.516793E-1,-2.8037566E-1,-1.9299306E-2,1.1881937E0,9.519639E-1,-2.652659E-1,2.0921126E-1,-1.8259172E-1,2.134496E-2,-7.921953E-2,5.796907E-1,7.24002E-2,-6.4687476E-2,9.163129E-3,1.3708001E-1,-2.0013787E-1,1.3842623E-1],"split_indices":[5,1,7,0,0,3,7,0,7,2,6,1,1,0,0,0,0,0,0,3,2,0,0,0,0,7,1,0,0,0,0,0,0],"split_type":[0,0,0,0,0,0,0,0,0,0,0,0,0,0,0,0,0,0,0,0,0,0,0,0,0,0,0,0,0,0,0,0,0],"sum_hessian":[6.208582E1,1.2144657E1,4.9941162E1,8.5512495E0,3.5934072E0,8.848407E0,4.1092754E1,1.3372675E0,2.2561398E0,2.434929E0,6.413478E0,3.725194E1,3.8408139E0,1.2173933E0,1.0387465E0,1.2213026E0,1.2136263E0,4.6870027E0,1.7264752E0,3.5103507E0,3.374159E1,1.779245E0,2.061569E0,2.440604E0,1.0697467E0,2.7291054E1,6.4505353E0,1.0256274E0,1.0359416E0,1.1202324E1,1.6088732E1,3.8853676E0,2.5651677E0],"tree_param":{"num_deleted":"0","num_feature":"8","num_nodes":"33","size_leaf_vector":"0"}},{"base_weights":[-1.568223E-1,-5.574834E-1,-4.046143E-2,-7.373702E-1,7.335541E-2,-3.7999597E-1,2.8399318E-2,-8.2108474E-1,-3.5757296E-2,-3.4639576E-1,4.8668474E-1,-7.365432E-1,-5.447701E-2,7.825712E-2,-3.9130658E-1,-1.477811E-1,-8.908498E-1,5.478545E-1,-3.690724E-1,1.09336665E-2,6.557633E-1,-7.473511E-1,1.4433432E-2,-9.647594E-1,-1.9008982E-1,-8.3247983E-1,4.4470355E-1,-1.10580474E-1,3.2532287E-1,1.0939314E-1,8.309681E-1,1.2246606E-1,-3.6945772E-1,-1.9761047E-1,6.9204164E-1],"categories":[],"categories_nodes":[],"categories_segments":[],"categories_sizes":[],"default_left":[1,1,1,1,1,1,1,1,0,0,0,0,1,1,1,0,1,0,1,1,1,0,0,0,0,0,0,1,1,0,0,0,0,0,0],"id":8,"left_children":[1,3,5,7,9,11,13,15,-1,-1,-1,-1,17,19,21,-1,23,-1,25,27,29,-1,-1,-1,-1,-1,-1,31,33,-1,-1,-1,-1,-1,-1],"loss_changes":[2.7286925E0,1.5523763E0,1.1052283E0,5.7937527E-1,8.3464855E-1,8.839965E-1,8.6445296E-1,3.0114698E-1,0E0,0E0,0E0,0E0,1.1955274E0,1.4099858E0,6.4607245E-1,0E0,2.387104E-1,0E0,1.8941215E0,1.3219228E0,2.7176583E-1,0E0,0E0,0E0,0E0,0E0,0E0,1.5549531E0,1.9848757E0,0E0,0E0,0E0,0E0,0E0,0E0],"parents":[2147483647,0,0,1,1,2,2,3,3,4,4,5,5,6,6,7,7,12,12,13,13,14,14,16,16,18,18,19,19,20,20,27,27,28,28],"right_children":[2,4,6,8,10,12,14,16,-1,-1,-1,-1,18,20,22,-1,24,-1,26,28,30,-1,-1,-1,-1,-1,-1,32,34,-1,-1,-1,-1,-1,-1],"split_conditions":[-5.815477E-1,2.4715331E-1,-7.2284544E-1,2.2541404E0,-6.5749127E-1,-4.1377336E-1,1.7382059E0,-9.588679E-1,-1.07271895E-2,-1.0391873E-1,1.4600542E-1,-2.2096296E-1,2.0921126E-1,1.5393893E0,7.4558187E-1,-4.4334333E-2,9.121034E-1,1.6435635E-1,1.044186E0,5.816624E-1,-2.580272E-1,-2.2420534E-1,4.3300297E-3,-2.8942785E-1,-5.702695E-2,-2.4974395E-1,1.3341106E-1,-2.2051659E-1,-6.5375006E-1,3.2817945E-2,2.4929044E-1,3.673982E-2,-1.1083732E-1,-5.928314E-2,2.076125E-1],"split_indices":[1,4,5,6,7,0,7,6,0,0,0,0,0,6,1,0,7,0,1,7,0,0,0,0,0,0,0,6,6,0,0,0,0,0,0],"split_type":[0,0,0,0,0,0,0,0,0,0,0,0,0,0,0,0,0,0,0,0,0,0,0,0,0,0,0,0,0,0,0,0,0,0,0],"sum_hessian":[5.8012737E1,1.2203137E1,4.58096E1,9.364058E0,2.8390803E0,6.962245E0,3.8847355E1,8.213736E0,1.1503223E0,1.4889421E0,1.3501381E0,2.7201445E0,4.2421002E0,3.5449745E1,3.3976116E0,1.063937E0,7.1497984E0,1.2010622E0,3.0410383E0,3.2661163E1,2.7885804E0,1.3611932E0,2.0364184E0,6.126862E0,1.0229363E0,1.9229971E0,1.118041E0,2.4023964E1,8.6372E0,1.0715041E0,1.7170764E0,1.2920028E1,1.1103935E1,3.7503781E0,4.886822E0],"tree_param":{"num_deleted":"0","num_feature":"8","num_nodes":"35","size_leaf_vector":"0"}},{"base_weights":[-1.2686229E-1,-5.4164904E-1,-3.328014E-2,-8.037444E-1,2.1575859E-2,-3.6835277E-1,3.9601795E-2,-8.90113E-1,-2.450649E-1,-4.0323174E-1,3.0626607E-1,-6.741549E-1,1.3431856E-1,9.0203166E-2,-3.8227323E-1,4.8286986E-1,-1.1728894E-2,-8.7694454E-1,2.004102E-2,-3.3846763E-1,5.9806085E-1,3.4912422E-4,4.3198767E-1,-7.248627E-1,1.1538917E-2,1.7051344E-1,-3.3689287E-1,7.104789E-1,-4.330231E-1,3.1692922E-1,-4.9398524E-1,-9.8326415E-1,9.6284315E-2,1.4471824E-1,8.169466E-1],"categories":[],"categories_nodes":[],"categories_segments":[],"categories_sizes":[],"default_left":[1,1,1,1,1,1,1,0,0,0,1,1,1,1,1,0,0,0,0,0,0,1,1,0,0,1,1,1,0,0,0,0,0,0,0],"id":9,"left_children":[1,3,5,7,9,11,13,-1,-1,-1,15,17,19,21,23,-1,-1,-1,-1,-1,-1,25,27,-1,-1,29,31,33,-1,-1,-1,-1,-1,-1,-1],"loss_changes":[2.1588974E0,1.5316622E0,1.158062E0,1.2092209E-1,6.352569E-1,1.3913531E0,8.7475324E-1,0E0,0E0,0E0,1.7986712E-1,7.816467E-1,1.087032E0,1.1040583E0,6.028679E-1,0E0,0E0,0E0,0E0,0E0,0E0,1.7486955E0,2.1105256E0,0E0,0E0,2.126905E0,2.9560766E0,2.4559307E-1,0E0,0E0,0E0,0E0,0E0,0E0,0E0],"parents":[2147483647,0,0,1,1,2,2,3,3,4,4,5,5,6,6,10,10,11,11,12,12,13,13,14,14,21,21,22,22,25,25,26,26,27,27],"right_children":[2,4,6,8,10,12,14,-1,-1,-1,16,18,20,22,24,-1,-1,-1,-1,-1,-1,26,28,-1,-1,30,32,34,-1,-1,-1,-1,-1,-1,-1],"split_conditions":[-7.2284544E-1,4.4697773E-1,-7.401015E-1,7.6732326E-1,-4.1377336E-1,3.0037507E-1,1.7382059E0,-2.670339E-1,-7.3519476E-2,-1.2096953E-1,1.066149E-1,3.1795216E-1,-7.252657E-1,8.903818E-1,7.4558187E-1,1.4486097E-1,-3.5186682E-3,-2.6308337E-1,6.0123065E-3,-1.0154029E-1,1.7941827E-1,-2.2725952E-1,9.440155E-1,-2.1745881E-1,3.4616753E-3,1.4551806E0,-2.3152469E-1,-3.3113313E-1,-1.2990694E-1,9.5078774E-2,-1.4819558E-1,-2.9497924E-1,2.8885296E-2,4.3415476E-2,2.45084E-1],"split_indices":[5,1,7,6,0,6,7,0,0,0,2,2,0,6,1,0,0,0,0,0,0,6,5,0,0,0,2,5,0,0,0,0,0,0,0],"split_type":[0,0,0,0,0,0,0,0,0,0,0,0,0,0,0,0,0,0,0,0,0,0,0,0,0,0,0,0,0,0,0,0,0,0,0],"sum_hessian":[5.5082237E1,9.25833E0,4.582391E1,6.026755E0,3.2315755E0,7.4622626E0,3.8361645E1,4.7059913E0,1.3207635E0,1.1296109E0,2.1019647E0,4.427582E0,3.034681E0,3.495517E1,3.406477E0,1.0180763E0,1.0838883E0,3.2228615E0,1.2047203E0,1.6364527E0,1.3982283E0,2.8471203E1,6.483966E0,1.3721609E0,2.034316E0,1.925166E1,9.2195425E0,5.039984E0,1.4439816E0,1.6204264E1,3.0473955E0,3.18986E0,6.0296826E0,1.1718959E0,3.8680882E0],"tree_param":{"num_deleted":"0","num_feature":"8","num_nodes":"35","size_leaf_vector":"0"}},{"base_weights":[-1.14024945E-1,-4.7023594E-1,-2.1681024E-2,-6.5688705E-1,1.12420656E-1,-2.8030685E-1,5.9382245E-2,-7.369433E-1,-5.979431E-2,-3.192082E-1,4.2099586E-1,-4.4979954E-1,1.5442207E-1,2.1249634E-1,-1.4879821E-1,-1.3515402E-1,-8.142728E-1,-1.0999816E-1,-8.5407215E-1,-2.4234156E-1,5.689376E-1,3.2630444E-1,-1.0822841E-1,-6.211512E-1,5.073252E-2,-8.945872E-1,-2.4867141E-1,-5.376807E-1,7.7098835E-1,-2.670586E-1,-1.0267376E0,-3.8089678E-1,4.0610257E-1,-6.205759E-1,2.1396005E-1,-8.9790684E-1,1.762996E-1,3.3702263E-1,-2.9339537E-1,-8.204506E-1,-2.852739E-2,1.9557035E-1,8.552179E-1,4.7716773E-1,-3.2666147E-1,-2.4300942E-1,7.086491E-1,-6.5645325E-1,4.1652867E-1],"categories":[],"categories_nodes":[],"categories_segments":[],"categories_sizes":[],"default_left":[1,1,1,1,1,1,1,1,0,0,0,1,1,1,1,0,1,1,1,0,0,1,1,1,1,0,0,1,0,0,0,0,1,0,1,0,0,1,1,0,0,0,0,0,0,0,0,0,0],"id":10,"left_children":[1,3,5,7,9,11,13,15,-1,-1,-1,17,19,21,23,-1,25,27,29,-1,-1,31,33,35,37,-1,-1,39,-1,-1,-1,-1,41,-1,43,-1,-1,45,47,-1,-1,-1,-1,-1,-1,-1,-1,-1,-1],"loss_changes":[1.7516811E0,1.2678022E0,9.3038255E-1,3.6038113E-1,6.0288167E-1,8.4870803E-1,1.1156424E0,2.3303127E-1,0E0,0E0,0E0,9.864322E-1,7.4821305E-1,7.6561433E-1,1.4453017E0,0E0,6.526661E-2,2.4570267E0,7.484841E-2,0E0,0E0,1.0021145E0,1.1217448E0,1.1581253E0,1.2289417E0,0E0,0E0,5.868132E-1,0E0,0E0,0E0,0E0,1.1543984E0,0E0,7.8506744E-1,0E0,0E0,1.6221908E0,1.7538044E0,0E0,0E0,0E0,0E0,0E0,0E0,0E0,0E0,0E0,0E0],"parents":[2147483647,0,0,1,1,2,2,3,3,4,4,5,5,6,6,7,7,11,11,12,12,13,13,14,14,16,16,17,17,18,18,21,21,22,22,23,23,24,24,27,27,32,32,34,34,37,37,38,38],"right_children":[2,4,6,8,10,12,14,16,-1,-1,-1,18,20,22,24,-1,26,28,30,-1,-1,32,34,36,38,-1,-1,40,-1,-1,-1,-1,42,-1,44,-1,-1,46,48,-1,-1,-1,-1,-1,-1,-1,-1,-1,-1],"split_conditions":[-5.815477E-1,2.4715331E-1,-7.734372E-1,2.2541404E0,-7.252657E-1,6.588245E-1,-1.1305144E-1,-8.914385E-1,-1.7938294E-2,-9.576247E-2,1.2629877E-1,-8.998672E-1,4.2471904E-1,7.791234E-1,1.4837357E-1,-4.054621E-2,8.1066656E-1,7.2899276E-1,4.1379952E-1,-7.2702475E-2,1.7068128E-1,-1.0768737E0,9.493824E-1,5.2070355E-1,-1.02281064E-1,-2.6837617E-1,-7.460143E-2,-3.943246E-2,2.3129651E-1,-8.011758E-2,-3.0802128E-1,-1.1426904E-1,-2.3285767E-2,-1.8617278E-1,8.2949317E-1,-2.6937208E-1,5.2889884E-2,-5.74881E-1,7.439922E-1,-2.4613519E-1,-8.558217E-3,5.8671106E-2,2.5656536E-1,1.4315033E-1,-9.799845E-2,-7.290283E-2,2.1259473E-1,-1.9693598E-1,1.24958605E-1],"split_indices":[1,4,6,6,0,3,4,6,0,0,0,6,4,6,1,0,5,1,1,0,0,2,6,0,0,0,0,5,0,0,0,0,6,0,7,0,0,7,5,0,0,0,0,0,0,0,0,0,0],"split_type":[0,0,0,0,0,0,0,0,0,0,0,0,0,0,0,0,0,0,0,0,0,0,0,0,0,0,0,0,0,0,0,0,0,0,0,0,0,0,0,0,0,0,0,0,0,0,0,0,0],"sum_hessian":[5.256237E1,9.97854E0,4.258383E1,7.4610357E0,2.5175047E0,9.575642E0,3.300819E1,6.3724227E0,1.0886129E0,1.0351288E0,1.482376E0,6.8645964E0,2.7110453E0,1.9007605E1,1.4000585E1,1.038493E0,5.3339295E0,4.4208493E0,2.443747E0,1.5974085E0,1.1136366E0,1.40164995E1,4.9911046E0,3.5302634E0,1.0470322E1,4.1613665E0,1.172563E0,3.238416E0,1.1824335E0,1.1342616E0,1.3094854E0,1.038618E0,1.2977881E1,1.5693617E0,3.421743E0,2.5272195E0,1.0030439E0,5.7267323E0,4.7435894E0,1.688993E0,1.549423E0,9.813197E0,3.1646845E0,2.380259E0,1.041484E0,2.3714623E0,3.3552697E0,3.188366E0,1.5552236E0],"tree_param":{"num_deleted":"0","num_feature":"8","num_nodes":"49","size_leaf_vector":"0"}},{"base_weights":[-1.02406025E-1,-4.5546776E-1,-2.997399E-2,-7.162226E-1,2.1456772E-2,-4.4276625E-1,1.710391E-2,-8.134613E-1,-2.0507556E-1,3.035016E-1,-2.0908111E-1,-6.7639476E-1,-8.726776E-2,5.968682E-2,-3.6640108E-1,-6.084017E-3,3.8693032E-1,-5.9161216E-1,9.342176E-2,1.5062681E-1,-3.1569573E-1,-2.3625427E-1,5.8396333E-1,2.2811772E-2,5.474403E-1,5.068634E-1,-4.5275998E-1,1.211466E-1,8.678259E-1],"categories":[],"categories_nodes":[],"categories_segments":[],"categories_sizes":[],"default_left":[1,1,1,1,1,1,1,0,0,0,0,0,0,1,1,1,1,0,0,1,1,0,1,0,0,0,0,0,0],"id":11,"left_children":[1,3,5,7,9,11,13,-1,-1,-1,-1,-1,-1,15,17,19,21,-1,-1,23,25,-1,27,-1,-1,-1,-1,-1,-1],"loss_changes":[1.2854507E0,1.0820364E0,8.475346E-1,1.102469E-1,3.2372618E-1,3.1156057E-1,6.711901E-1,0E0,0E0,0E0,0E0,0E0,0E0,7.911077E-1,4.8127544E-1,1.5758463E0,8.9290386E-1,0E0,0E0,1.0825417E0,1.459328E0,0E0,5.464151E-1,0E0,0E0,0E0,0E0,0E0,0E0],"parents":[2147483647,0,0,1,1,2,2,3,3,4,4,5,5,6,6,13,13,14,14,15,15,16,16,19,19,20,20,22,22],"right_children":[2,4,6,8,10,12,14,-1,-1,-1,-1,-1,-1,16,18,20,22,-1,-1,24,26,-1,28,-1,-1,-1,-1,-1,-1],"split_conditions":[-7.2284544E-1,4.4697773E-1,-9.133301E-1,7.6732326E-1,-1.1228921E0,-6.5749127E-1,1.7382059E0,-2.440384E-1,-6.152267E-2,9.105048E-2,-6.272434E-2,-2.0291844E-1,-2.6180329E-2,1.1654217E0,7.8289413E-1,-5.493558E-1,-7.276967E-2,-1.7748365E-1,2.8026529E-2,6.995452E-1,-3.5613602E-1,-7.0876285E-2,1.7225932E-1,6.843532E-3,1.6423209E-1,1.5205903E-1,-1.35828E-1,3.634398E-2,2.6034778E-1],"split_indices":[5,1,1,6,5,7,7,0,0,0,0,0,0,4,2,4,5,0,0,3,5,0,6,0,0,0,0,0,0],"split_type":[0,0,0,0,0,0,0,0,0,0,0,0,0,0,0,0,0,0,0,0,0,0,0,0,0,0,0,0,0],"sum_hessian":[4.979982E1,7.5772357E0,4.2222584E1,4.574442E0,3.0027938E0,3.461982E0,3.87606E1,3.3463936E0,1.2280483E0,1.2081835E0,1.7946101E0,1.5443753E0,1.9176067E0,3.5646873E1,3.1137261E0,3.049855E1,5.1483245E0,1.897677E0,1.2160492E0,2.059024E1,9.90831E0,1.1889145E0,3.9594102E0,1.6373701E1,4.21654E0,1.0298582E0,8.878451E0,2.0476496E0,1.9117604E0],"tree_param":{"num_deleted":"0","num_feature":"8","num_nodes":"29","size_leaf_vector":"0"}},{"base_weights":[-8.091637E-2,-5.0182533E-1,-3.242405E-2,-6.3978255E-1,1.9287191E-2,-5.943094E-1,-3.6649597E-3,5.2839136E-1,-3.4276795E-2,-5.0449204E-1,1.916004E-2,-7.719001E-1,6.486808E-2,5.004102E-1,-1.302714E-2,-2.516767E-1,5.359081E-2],"categories":[],"categories_nodes":[],"categories_segments":[],"categories_sizes":[],"default_left":[1,1,1,0,0,0,1,0,1,1,1,0,0,0,1,0,0],"id":12,"left_children":[1,3,5,-1,-1,-1,7,-1,9,11,13,-1,-1,-1,15,-1,-1],"loss_changes":[9.885866E-1,3.7300873E-1,7.284599E-1,0E0,0E0,0E0,7.35064E-1,0E0,1.0791525E0,7.169405E-1,6.1347467E-1,0E0,0E0,0E0,6.1288273E-1,0E0,0E0],"parents":[2147483647,0,0,1,1,2,2,6,6,8,8,9,9,10,10,14,14],"right_children":[2,4,6,-1,-1,-1,8,-1,10,12,14,-1,-1,-1,16,-1,-1],"split_conditions":[-9.133301E-1,1.6894195E0,-1.314581E0,-1.9193478E-1,5.7861577E-3,-1.7829283E-1,-1.1395607E0,1.5851742E-1,-7.2284544E-1,6.2945807E-1,-7.806171E-1,-2.3157005E-1,1.9460425E-2,1.5012306E-1,-2.8294355E-1,-7.5503014E-2,1.6077245E-2],"split_indices":[1,6,5,0,0,0,5,0,5,1,1,0,0,0,1,0,0],"split_type":[0,0,0,0,0,0,0,0,0,0,0,0,0,0,0,0,0],"sum_hessian":[4.823155E1,4.016875E0,4.4214672E1,2.9960017E0,1.0208733E0,1.1953444E0,4.301933E1,1.4557799E0,4.156355E1,3.3800483E0,3.8183502E1,2.0578275E0,1.3222208E0,1.4817702E0,3.670173E1,7.4031305E0,2.92986E1],"tree_param":{"num_deleted":"0","num_feature":"8","num_nodes":"17","size_leaf_vector":"0"}},{"base_weights":[-6.6935636E-2,-2.5190914E-1,2.9184338E-2,-5.573967E-1,5.0663017E-2,-1.0971229E-1,3.4502238E-1,-7.9392713E-1,1.8603064E-1,2.8157857E-1,-5.793281E-1,5.7194382E-2,-4.1645563E-1,5.485735E-1,1.094403E-1,-1.9667162E-1,6.8110144E-1,4.1864628E-1,-1.2831473E-1,5.0853785E-2,-6.821996E-1,7.9275393E-1,-2.2396445E-1,-1.1760325E-1,4.0309474E-1,-5.53396E-1,4.5836723E-1,4.7010463E-2,8.916263E-1,-1.031924E-1,5.9023964E-1,1.3156278E-1,-3.8762206E-1,4.676726E-1,-3.804357E-1,-8.5368854E-1,-4.6952676E-2,9.5700324E-1,2.4299638E-1,2.531522E-1,-6.1937195E-1,7.6420784E-1,2.9184404E-1,-2.075355E-1,3.828374E-1,-5.804534E-4,-7.6354563E-1,-6.120316E-3,3.969458E-1],"categories":[],"categories_nodes":[],"categories_segments":[],"categories_sizes":[],"default_left":[1,1,1,1,1,1,1,0,0,1,0,1,1,1,1,1,1,1,1,1,1,1,0,1,0,0,0,0,0,0,1,1,1,0,0,0,0,0,0,1,0,0,0,0,0,0,0,0,0],"id":13,"left_children":[1,3,5,7,9,11,13,-1,-1,15,-1,17,19,21,23,25,27,29,31,33,35,37,-1,39,-1,-1,-1,-1,-1,-1,41,43,45,-1,-1,-1,-1,-1,-1,47,-1,-1,-1,-1,-1,-1,-1,-1,-1],"loss_changes":[8.642652E-1,1.561184E0,1.4684926E0,1.6134956E0,1.5085816E0,1.2223202E0,4.2919838E-1,0E0,0E0,1.5557041E0,0E0,1.1292113E0,1.0740983E0,1.1630074E0,4.4599375E-1,1.2263534E0,5.291903E-1,5.690363E-1,8.168571E-1,8.906756E-1,5.487268E-1,1.4577079E-1,0E0,9.280334E-1,0E0,0E0,0E0,0E0,0E0,0E0,6.3779354E-3,6.267197E-1,8.641209E-1,0E0,0E0,0E0,0E0,0E0,0E0,1.1777744E-1,0E0,0E0,0E0,0E0,0E0,0E0,0E0,0E0,0E0],"parents":[2147483647,0,0,1,1,2,2,3,3,4,4,5,5,6,6,9,9,11,11,12,12,13,13,14,14,15,15,16,16,17,17,18,18,19,19,20,20,21,21,23,23,30,30,31,31,32,32,39,39],"right_children":[2,4,6,8,10,12,14,-1,-1,16,-1,18,20,22,24,26,28,30,32,34,36,38,-1,40,-1,-1,-1,-1,-1,-1,42,44,46,-1,-1,-1,-1,-1,-1,48,-1,-1,-1,-1,-1,-1,-1,-1,-1],"split_conditions":[-4.1377336E-1,1.1891933E-1,2.009168E-1,-7.921953E-2,1.477411E0,-5.2906257E-1,2.5122145E-1,-2.3817815E-1,5.5809196E-2,-4.9227077E-1,-1.7379844E-1,-1.6182977E-1,-6.3014984E-1,7.93998E-1,5.356345E-1,6.783843E-1,-4.0059447E-1,-7.401015E-1,8.321959E-1,-6.245489E-2,1.2266665E0,7.46609E-2,-6.7189336E-2,1.027597E0,1.2092843E-1,-1.660188E-1,1.3751018E-1,1.410314E-2,2.674879E-1,-3.095772E-2,-5.696643E-1,-7.7175146E-1,1.159934E0,1.4030178E-1,-1.1413071E-1,-2.561066E-1,-1.4085803E-2,2.8710097E-1,7.289892E-2,1.3046727E-1,-1.858116E-1,2.2926237E-1,8.755322E-2,-6.2260654E-2,1.1485123E-1,-1.7413602E-4,-2.290637E-1,-1.8360949E-3,1.1908375E-1],"split_indices":[0,5,6,7,5,4,7,0,0,7,0,7,6,5,5,4,2,7,0,2,1,4,0,1,0,0,0,0,0,0,2,6,7,0,0,0,0,0,0,4,0,0,0,0,0,0,0,0,0],"split_type":[0,0,0,0,0,0,0,0,0,0,0,0,0,0,0,0,0,0,0,0,0,0,0,0,0,0,0,0,0,0,0,0,0,0,0,0,0,0,0,0,0,0,0,0,0,0,0,0,0],"sum_hessian":[4.7196304E1,1.558456E1,3.1611746E1,7.335841E0,8.248719E0,2.240937E1,9.202374E0,5.513672E0,1.8221697E0,6.440922E0,1.8077974E0,1.5039531E1,7.369839E0,4.224056E0,4.9783187E0,3.162716E0,3.278206E0,4.6746163E0,1.0364915E1,2.9648328E0,4.4050064E0,3.1897008E0,1.034355E0,3.1456943E0,1.8326247E0,2.1480763E0,1.0146396E0,1.122024E0,2.156182E0,1.2553992E0,3.419217E0,5.422814E0,4.942101E0,1.4648107E0,1.5000222E0,3.1978562E0,1.2071503E0,1.8855792E0,1.3041217E0,2.0939562E0,1.0517379E0,1.1738137E0,2.2454035E0,2.3821461E0,3.0406675E0,2.9285169E0,2.0135841E0,1.0885826E0,1.0053736E0],"tree_param":{"num_deleted":"0","num_feature":"8","num_nodes":"49","size_leaf_vector":"0"}},{"base_weights":[-4.8995428E-2,-4.4373196E-1,-7.573888E-3,-6.597385E-1,-9.244927E-2,3.439914E-2,-3.104808E-1,-3.9993577E-2,3.5223532E-1,1.9865056E-2,-4.7533065E-1,-9.4831765E-2,6.6569585E-1,-1.0344483E-3,8.048699E-1,-6.3478583E-1,-1.3649473E-1,-5.6906354E-1,-1.9488467E-2,2.1443112E-1,-3.775582E-1,-3.4438837E-2,-7.368791E-1,4.4918758E-1,-1.3023327E-1,4.7727686E-1,-2.4570788E-1],"categories":[],"categories_nodes":[],"categories_segments":[],"categories_sizes":[],"default_left":[1,1,1,0,0,1,1,1,1,0,1,1,0,1,0,0,0,1,1,1,0,0,0,0,0,0,0],"id":14,"left_children":[1,3,5,-1,-1,7,9,11,13,-1,15,17,-1,19,-1,-1,-1,21,23,25,-1,-1,-1,-1,-1,-1,-1],"loss_changes":[7.4934727E-1,2.6943088E-1,5.5332226E-1,0E0,0E0,9.217309E-1,2.9774857E-1,1.3016481E0,1.1813345E0,0E0,1.06339216E-1,1.0812443E0,0E0,4.98377E-1,0E0,0E0,0E0,3.474686E-1,1.481485E0,5.902002E-1,0E0,0E0,0E0,0E0,0E0,0E0,0E0],"parents":[2147483647,0,0,1,1,2,2,5,5,6,6,7,7,8,8,10,10,11,11,13,13,17,17,18,18,19,19],"right_children":[2,4,6,-1,-1,8,10,12,14,-1,16,18,-1,20,-1,-1,-1,22,24,26,-1,-1,-1,-1,-1,-1,-1],"split_conditions":[-9.133301E-1,-4.1377336E-1,1.7382059E0,-1.9792156E-1,-2.7734783E-2,1.1436882E0,2.0921126E-1,1.490375E0,-5.5314705E-2,5.9595173E-3,7.4558187E-1,-9.689823E-1,1.9970876E-1,9.121034E-1,2.4146098E-1,-1.9043575E-1,-4.094842E-2,-7.3873407E-1,-7.1949375E-1,-6.1666393E-1,-1.1326747E-1,-1.0331651E-2,-2.2106375E-1,1.3475628E-1,-3.9069984E-2,1.4318307E-1,-7.371237E-2],"split_indices":[1,0,7,0,0,0,0,7,6,0,1,6,0,7,0,0,0,2,6,6,0,0,0,0,0,0,0],"split_type":[0,0,0,0,0,0,0,0,0,0,0,0,0,0,0,0,0,0,0,0,0,0,0,0,0,0,0],"sum_hessian":[4.5035515E1,3.3545864E0,4.168093E1,1.5335255E0,1.821061E0,3.7386776E1,4.2941523E0,3.1004124E1,6.382654E0,1.7222991E0,2.5718534E0,2.957176E1,1.432364E0,4.1451693E0,2.2374847E0,1.15492E0,1.4169334E0,3.1557357E0,2.6416023E1,2.9102676E0,1.2349018E0,1.0418481E0,2.1138878E0,4.4647937E0,2.195123E1,1.8285168E0,1.0817508E0],"tree_param":{"num_deleted":"0","num_feature":"8","num_nodes":"27","size_leaf_vector":"0"}},{"base_weights":[-3.982705E-2,-9.6937895E-2,2.011991E-1,-3.9270636E-1,-2.6814884E-2,2.3818692E-2,7.370003E-1,-5.0094086E-1,1.2007115E-1,5.8936894E-2,-2.8383404E-1,2.564256E-1,-2.9879388E-1,-5.616872E-1,-1.2470583E-1,4.8287138E-1,-2.3188377E-2,-4.7919497E-1,2.1057025E-1,-7.6870814E-2,6.400401E-1,1.841561E-1,-7.620354E-1,-6.980362E-1,-2.1899508E-1,-2.4857787E-2,9.367676E-1,-9.972564E-2,4.5117566E-1,2.0449509E-1,-7.4480534E-1,2.0284797E-1,-3.9976332E-1,4.6345854E-1,-1.7663191E-1,5.7506603E-1,1.0645252E-1,-8.6329097E-1,-1.7414506E-1],"categories":[],"categories_nodes":[],"categories_segments":[],"categories_sizes":[],"default_left":[1,1,1,1,1,1,0,1,0,1,1,1,1,1,0,1,1,1,0,1,0,0,0,0,0,0,0,1,1,0,1,0,0,0,0,0,0,0,0],"id":15,"left_children":[1,3,5,7,9,11,-1,13,-1,15,17,19,21,23,-1,25,27,29,-1,31,-1,-1,-1,-1,-1,-1,-1,33,35,-1,37,-1,-1,-1,-1,-1,-1,-1,-1],"loss_changes":[6.39031E-1,7.581037E-1,8.327358E-1,4.5027518E-1,7.0064396E-1,6.5855515E-1,0E0,6.702685E-2,0E0,8.501123E-1,8.673249E-1,6.94129E-1,9.704995E-1,7.5080395E-2,0E0,9.3501467E-1,8.1250197E-1,1.2405846E0,0E0,4.0550435E-1,0E0,0E0,0E0,0E0,0E0,0E0,0E0,9.057369E-1,7.194507E-2,0E0,1.5605974E-1,0E0,0E0,0E0,0E0,0E0,0E0,0E0,0E0],"parents":[2147483647,0,0,1,1,2,2,3,3,4,4,5,5,7,7,9,9,10,10,11,11,12,12,13,13,15,15,16,16,17,17,19,19,27,27,28,28,30,30],"right_children":[2,4,6,8,10,12,-1,14,-1,16,18,20,22,24,-1,26,28,30,-1,32,-1,-1,-1,-1,-1,-1,-1,34,36,-1,38,-1,-1,-1,-1,-1,-1,-1,-1],"split_conditions":[9.37123E-1,-5.815477E-1,8.321959E-1,2.4715331E-1,-1.4349127E-1,-6.245489E-2,2.2110009E-1,1.8023636E0,3.6021348E-2,-8.227117E-1,5.403573E-1,5.2730024E-1,1.0660316E0,-8.137953E-1,-3.741175E-2,2.7003187E-1,1.0253109E0,-3.7280464E-1,6.3171074E-2,6.05792E-2,1.9201204E-1,5.5246834E-2,-2.2861063E-1,-2.0941086E-1,-6.569853E-2,-7.4573364E-3,2.810303E-1,-1.0296687E0,6.29458E-1,6.1348528E-2,5.7730603E-1,6.0854394E-2,-1.19929E-1,1.3903756E-1,-5.2989576E-2,1.7251982E-1,3.1935755E-2,-2.589873E-1,-5.224352E-2],"split_indices":[4,1,0,4,4,2,0,6,0,7,7,5,3,1,0,6,3,5,0,5,0,0,0,0,0,0,0,6,1,0,5,0,0,0,0,0,0,0,0],"split_type":[0,0,0,0,0,0,0,0,0,0,0,0,0,0,0,0,0,0,0,0,0,0,0,0,0,0,0,0,0,0,0,0,0,0,0,0,0,0,0],"sum_hessian":[4.400675E1,3.6060154E1,7.946596E0,6.0292826E0,3.003087E1,6.754823E0,1.1917729E0,4.9975157E0,1.0317668E0,2.3095865E1,6.935005E0,4.0441265E0,2.7106965E0,3.8783996E0,1.119116E0,2.9561882E0,2.0139677E1,4.992866E0,1.9421389E0,2.5918555E0,1.4522712E0,1.6220739E0,1.0886225E0,2.032712E0,1.8456877E0,1.8415082E0,1.11468E0,1.8021698E1,2.117979E0,1.4613628E0,3.5315034E0,1.587981E0,1.0038745E0,1.5613874E0,1.646031E1,1.0664941E0,1.0514851E0,2.4997E0,1.0318034E0],"tree_param":{"num_deleted":"0","num_feature":"8","num_nodes":"39","size_leaf_vector":"0"}},{"base_weights":[-2.3433551E-2,-2.3334455E-1,3.849047E-2,-5.1835746E-1,-2.4745442E-2,5.434E-1,-7.747394E-3,-7.4564457E-1,-2.4671705E-2,2.775539E-1,-5.891178E-1,-2.116397E-1,6.305445E-2,6.1792374E-1,-4.2214256E-2,3.6018854E-1,-4.6237633E-1,1.5237191E-1,-3.7755516E-1,3.0091774E-1,-3.0626735E-1,5.8280338E-2,4.8450097E-1,-7.175055E-1,2.409673E-1,-3.6052942E-2,3.8141584E-1,-7.1475327E-1,2.4639383E-1,-8.629699E-1,-2.7346146E-1,-1.9626476E-1,3.626248E-1,5.373697E-1,-1.6555922E-1],"categories":[],"categories_nodes":[],"categories_segments":[],"categories_sizes":[],"default_left":[1,1,1,1,1,0,1,0,0,1,0,1,1,0,1,1,1,1,1,0,0,0,0,1,0,1,1,0,0,0,0,0,0,0,0],"id":16,"left_children":[1,3,5,7,9,-1,11,-1,-1,13,-1,15,17,-1,19,21,23,25,27,-1,-1,-1,-1,29,-1,31,33,-1,-1,-1,-1,-1,-1,-1,-1],"loss_changes":[5.7716554E-1,5.875962E-1,8.122675E-1,4.548651E-1,1.3375349E0,0E0,4.853213E-1,0E0,0E0,5.87789E-1,0E0,1.407695E0,1.0428787E0,0E0,4.1806832E-1,9.189257E-2,1.3313245E0,9.429518E-1,1.1244869E0,0E0,0E0,0E0,0E0,8.624339E-2,0E0,8.840351E-1,9.2528725E-1,0E0,0E0,0E0,0E0,0E0,0E0,0E0,0E0],"parents":[2147483647,0,0,1,1,2,2,3,3,4,4,6,6,9,9,11,11,12,12,14,14,15,15,16,16,17,17,18,18,23,23,25,25,26,26],"right_children":[2,4,6,8,10,-1,12,-1,-1,14,-1,16,18,-1,20,22,24,26,28,-1,-1,-1,-1,30,-1,32,34,-1,-1,-1,-1,-1,-1,-1,-1],"split_conditions":[-7.734372E-1,-7.276967E-2,-7.1612227E-1,2.0991632E-1,8.707983E-1,1.6302E-1,-7.252657E-1,-2.2369339E-1,-7.401512E-3,2.7727112E-1,-1.7673536E-1,-3.2840353E-1,9.519639E-1,1.8537712E-1,-9.8415387E-1,-1.6182977E-1,1.176899E0,2.009168E-1,5.796907E-1,9.0275325E-2,-9.188021E-2,1.7484102E-2,1.4535029E-1,9.8141146E-1,7.22902E-2,5.816624E-1,9.9471366E-1,-2.14426E-1,7.391815E-2,-2.58891E-1,-8.203844E-2,-5.887943E-2,1.0878744E-1,1.6121092E-1,-4.966777E-2],"split_indices":[6,5,6,7,7,0,0,0,0,5,0,6,2,0,6,7,1,6,1,0,0,0,0,6,0,7,7,0,0,0,0,0,0,0,0],"split_type":[0,0,0,0,0,0,0,0,0,0,0,0,0,0,0,0,0,0,0,0,0,0,0,0,0,0,0,0,0,0,0,0,0,0,0],"sum_hessian":[4.2711384E1,9.099049E0,3.3612335E1,3.2176995E0,5.8813496E0,1.9178182E0,3.1694519E1,1.8538473E0,1.3638521E0,4.1608486E0,1.720501E0,7.6564875E0,2.403803E1,1.5638417E0,2.597007E0,2.200811E0,5.4556766E0,2.053042E1,3.5076113E0,1.0686743E0,1.5283327E0,1.070293E0,1.1305181E0,3.9886928E0,1.4669839E0,1.1726288E1,8.8041315E0,2.1825652E0,1.325046E0,2.2938254E0,1.6948675E0,8.726989E0,2.999299E0,6.8644857E0,1.9396456E0],"tree_param":{"num_deleted":"0","num_feature":"8","num_nodes":"35","size_leaf_vector":"0"}},{"base_weights":[-2.2542201E-2,-2.9840934E-1,2.6660483E-2,-6.4409393E-1,2.2407748E-2,1.2850194E-1,-8.684594E-2,2.9280558E-1,-4.25733E-1,-3.325365E-1,2.1642871E-1,-2.56952E-1,1.601403E-1,5.204477E-1,-4.4358324E-2,1.5992427E-1,-6.3566554E-1,3.7190616E-1,-7.8323655E-2,-6.0277056E-2,-5.52243E-1,-5.9818184E-1,3.633134E-1,5.7314277E-1,1.5236661E-1,-6.681726E-1,2.1867804E-1,-2.987106E-1,3.1641194E-1,7.581472E-2,-7.885981E-1,5.4737824E-1,-2.0847374E-1,-2.4999354E-2,7.22526E-1,-5.3382415E-1,4.3828067E-1,4.1637224E-1,-2.5470448E-1,-6.4643824E-1,1.1695273E-1,-1.2708548E-1,6.5700203E-1,-1.2359127E-1,8.377464E-1],"categories":[],"categories_nodes":[],"categories_segments":[],"categories_sizes":[],"default_left":[1,1,1,0,1,1,1,1,0,1,1,1,1,0,0,0,0,1,1,1,1,0,1,1,1,0,1,1,1,0,0,1,0,0,0,0,0,0,0,0,0,0,0,0,0],"id":17,"left_children":[1,3,5,-1,7,9,11,13,-1,15,17,19,21,-1,-1,-1,-1,23,25,27,29,-1,31,33,35,-1,37,39,41,-1,-1,43,-1,-1,-1,-1,-1,-1,-1,-1,-1,-1,-1,-1,-1],"loss_changes":[5.818369E-1,7.332413E-1,4.3653592E-1,0E0,6.4911354E-1,8.745786E-1,7.9736555E-1,2.75743E-1,0E0,6.339032E-1,8.189018E-1,6.08015E-1,1.4432408E0,0E0,0E0,0E0,0E0,4.1880608E-1,1.333407E0,7.906263E-1,6.9690275E-1,0E0,8.400591E-1,5.197966E-1,1.5761337E0,0E0,5.9840727E-1,8.3596087E-1,6.106393E-1,0E0,0E0,1.1738694E0,0E0,0E0,0E0,0E0,0E0,0E0,0E0,0E0,0E0,0E0,0E0,0E0,0E0],"parents":[2147483647,0,0,1,1,2,2,4,4,5,5,6,6,7,7,9,9,10,10,11,11,12,12,17,17,18,18,19,19,20,20,22,22,23,23,24,24,26,26,27,27,28,28,31,31],"right_children":[2,4,6,-1,8,10,12,14,-1,16,18,20,22,-1,-1,-1,-1,24,26,28,30,-1,32,34,36,-1,38,40,42,-1,-1,44,-1,-1,-1,-1,-1,-1,-1,-1,-1,-1,-1,-1,-1],"split_conditions":[-7.2284544E-1,-4.1377336E-1,3.8561708E-1,-1.9322819E-1,-7.414815E-2,-7.401015E-1,4.8015594E-1,2.0921126E-1,-1.2771991E-1,7.293258E-3,4.1379946E-1,8.20171E-2,5.939747E-1,1.561343E-1,-1.3307498E-2,4.7977284E-2,-1.9069967E-1,-2.3568818E-1,-2.644587E-1,-2.663544E-1,6.2731194E-1,-1.7945457E-1,8.128381E-1,-9.2683893E-1,5.594371E-2,-2.0045179E-1,1.0253109E0,7.402659E-1,3.1795216E-1,2.2744415E-2,-2.3657945E-1,-7.1106505E-1,-6.2542126E-2,-7.4998066E-3,2.1675782E-1,-1.6014725E-1,1.3148421E-1,1.2491167E-1,-7.6411344E-2,-1.9393148E-1,3.508582E-2,-3.8125645E-2,1.9710062E-1,-3.7077382E-2,2.5132394E-1],"split_indices":[5,0,5,0,3,7,1,0,0,3,1,1,5,0,0,0,0,6,5,1,5,0,6,6,6,0,3,3,2,0,0,6,0,0,0,0,0,0,0,0,0,0,0,0,0],"split_type":[0,0,0,0,0,0,0,0,0,0,0,0,0,0,0,0,0,0,0,0,0,0,0,0,0,0,0,0,0,0,0,0,0,0,0,0,0,0,0,0,0,0,0,0,0],"sum_hessian":[4.1279823E1,5.481504E0,3.579832E1,2.153458E0,3.3280458E0,1.879909E1,1.6999231E1,2.2918298E0,1.036216E0,2.5654333E0,1.6233656E1,1.0042407E1,6.9568243E0,1.0436122E0,1.2482176E0,1.1574583E0,1.4079751E0,1.0456337E1,5.777319E0,6.7504683E0,3.2919388E0,1.0592155E0,5.8976088E0,4.615225E0,5.8411126E0,1.5162673E0,4.2610517E0,4.2606235E0,2.4898448E0,1.0858316E0,2.206107E0,4.493718E0,1.4038906E0,1.0886873E0,3.5265372E0,1.4629556E0,4.378157E0,3.090731E0,1.1703205E0,2.01759E0,2.2430334E0,1.3538299E0,1.136015E0,1.5307937E0,2.9629247E0],"tree_param":{"num_deleted":"0","num_feature":"8","num_nodes":"45","size_leaf_vector":"0"}},{"base_weights":[-3.0892497E-2,-3.6348012E-1,5.692281E-3,-6.0828435E-1,-2.3960155E-2,4.744851E-2,-2.8842622E-1,2.9062028E-3,4.9877825E-1,-2.032765E-3,-4.2964625E-1,-5.696335E-2,2.9290828E-1,-4.6212906E-1,3.8849725E-3,4.84622E-1,-1.6572377E-1,-6.287325E-1,-1.1053722E-1,3.398296E-1,-8.0217995E-2,6.789174E-1,3.7095584E-2],"categories":[],"categories_nodes":[],"categories_segments":[],"categories_sizes":[],"default_left":[1,1,1,0,0,1,1,1,0,0,0,1,1,1,1,1,0,0,0,0,0,0,0],"id":18,"left_children":[1,3,5,-1,-1,7,9,11,-1,-1,-1,13,15,17,19,21,-1,-1,-1,-1,-1,-1,-1],"loss_changes":[4.9465117E-1,3.2015443E-1,4.7368914E-1,0E0,0E0,6.751841E-1,1.9317085E-1,5.66035E-1,0E0,0E0,0E0,6.690051E-1,5.706835E-1,1.3798201E-1,7.200832E-1,3.3895802E-1,0E0,0E0,0E0,0E0,0E0,0E0,0E0],"parents":[2147483647,0,0,1,1,2,2,5,5,6,6,7,7,11,11,12,12,13,13,14,14,15,15],"right_children":[2,4,6,-1,-1,8,10,12,-1,-1,-1,14,16,18,20,22,-1,-1,-1,-1,-1,-1,-1],"split_conditions":[-8.8015187E-1,-4.1377336E-1,1.7382059E0,-1.8248531E-1,-7.188047E-3,1.490375E0,2.0921126E-1,1.1436882E0,1.4963348E-1,-6.098295E-4,-1.2889388E-1,-9.689823E-1,7.1898925E-1,-9.284951E-4,-7.1949375E-1,6.6427267E-1,-4.9717132E-2,-1.8861976E-1,-3.3161167E-2,1.0194888E-1,-2.40654E-2,2.0367523E-1,1.1128675E-2],"split_indices":[1,0,7,0,0,7,0,0,0,0,0,6,5,1,6,7,0,0,0,0,0,0,0],"split_type":[0,0,0,0,0,0,0,0,0,0,0,0,0,0,0,0,0,0,0,0,0,0,0],"sum_hessian":[3.948294E1,3.0272558E0,3.6455685E1,1.2990209E0,1.7282348E0,3.2657894E1,3.7977905E0,3.0640394E1,2.0175004E0,1.5892315E0,2.208559E0,2.6063322E1,4.577073E0,2.542045E0,2.3521276E1,3.1878467E0,1.3892267E0,1.1899407E0,1.3521044E0,4.1006846E0,1.9420591E1,1.8622841E0,1.3255625E0],"tree_param":{"num_deleted":"0","num_feature":"8","num_nodes":"23","size_leaf_vector":"0"}},{"base_weights":[-2.6212541E-2,-2.4493496E-1,1.8924614E-2,-4.3176138E-1,1.7773493E-1,-1.6126528E-1,1.0914818E-1,-5.475979E-1,-1.8913682E-1,-2.9191044E-1,1.7662539E-1,5.68319E-1,2.537329E-2,-9.353953E-3,-2.776809E-1,2.1921262E-1,-4.3562958E-1,-2.2671916E-1,5.6510055E-1,-4.4466725E-1,1.00227855E-1,-7.561036E-1,-3.7639674E-3,-1.7566502E-1,2.2962344E-1,-2.4929853E-1,-8.729184E-1,-2.736331E-1,4.1227213E-1,1.21330895E-1,-4.547115E-1,5.1093304E-1,-8.718081E-2],"categories":[],"categories_nodes":[],"categories_segments":[],"categories_sizes":[],"default_left":[1,1,1,1,0,1,1,0,1,1,1,0,1,0,0,0,1,0,0,0,1,1,1,1,1,0,0,0,0,0,0,0,0],"id":19,"left_children":[1,3,5,7,-1,9,11,-1,13,15,17,-1,19,-1,-1,-1,21,-1,-1,-1,23,25,27,29,31,-1,-1,-1,-1,-1,-1,-1,-1],"loss_changes":[3.972704E-1,6.196356E-1,5.686533E-1,3.86194E-2,0E0,5.686095E-1,8.773446E-1,0E0,4.7746204E-2,7.4368036E-1,7.374857E-1,0E0,7.712137E-1,0E0,0E0,0E0,9.9669623E-1,0E0,0E0,0E0,7.054612E-1,2.7519703E-2,5.7104856E-1,5.9510064E-1,1.2134737E0,0E0,0E0,0E0,0E0,0E0,0E0,0E0,0E0],"parents":[2147483647,0,0,1,1,2,2,3,3,5,5,6,6,8,8,9,9,10,10,12,12,16,16,20,20,21,21,22,22,23,23,24,24],"right_children":[2,4,6,8,-1,10,12,-1,14,16,18,-1,20,-1,-1,-1,22,-1,-1,-1,24,26,28,30,32,-1,-1,-1,-1,-1,-1,-1,-1],"split_conditions":[-5.815477E-1,2.4715331E-1,-6.453214E-1,-2.4444002E-1,5.332048E-2,8.62428E-1,-5.6946343E-1,-1.6427937E-1,4.1644195E-1,-1.046526E0,4.5008558E-1,1.7049572E-1,-4.2954755E-1,-2.8061862E-3,-8.330427E-2,6.576379E-2,6.138243E-1,-6.801575E-2,1.6953017E-1,-1.3340019E-1,1.4837357E-1,1.8155181E-1,7.4558187E-1,1.4392224E-1,3.4420413E-1,-7.478956E-2,-2.6187554E-1,-8.208993E-2,1.2368164E-1,3.639927E-2,-1.3641346E-1,1.5327992E-1,-2.6154244E-2],"split_indices":[1,4,6,7,0,3,6,0,7,6,4,0,6,0,0,0,2,0,0,0,1,1,1,5,6,0,0,0,0,0,0,0,0],"split_type":[0,0,0,0,0,0,0,0,0,0,0,0,0,0,0,0,0,0,0,0,0,0,0,0,0,0,0,0,0,0,0,0,0],"sum_hessian":[3.8770554E1,5.875075E0,3.289548E1,4.0592957E0,1.8157792E0,1.0712876E1,2.2182604E1,1.8967514E0,2.1625443E0,7.823865E0,2.8890111E0,2.5302734E0,1.965233E1,1.0784551E0,1.0840892E0,1.6018294E0,6.2220354E0,1.6216635E0,1.2673478E0,2.0210385E0,1.7631292E1,3.140663E0,3.0813725E0,5.514941E0,1.2116351E1,1.1753786E0,1.9652843E0,2.076621E0,1.0047514E0,2.9453394E0,2.5696015E0,6.093126E0,6.0232253E0],"tree_param":{"num_deleted":"0","num_feature":"8","num_nodes":"33","size_leaf_vector":"0"}},{"base_weights":[-2.6422707E-2,-1.557187E-1,4.1330755E-2,-3.0250782E-1,1.1188024E-1,1.9434655E-1,-5.998182E-2,-6.092426E-1,-1.3412645E-1,3.290885E-1,-4.0968454E-1,-3.903772E-1,3.121162E-1,1.3115929E-2,-5.254218E-1,-5.0050163E-1,8.057445E-2,4.6659333E-1,-6.351432E-2,5.902157E-1,2.8220965E-2,-1.03804216E-1,3.1852543E-1,4.2932633E-1,-4.1006467E-1,8.5219866E-1,1.8642552E-1,-2.4563989E-1,6.137206E-1,1.7199345E-2,-4.038783E-1,5.359175E-1,-1.9975963E-1,-5.781195E-2,6.5163827E-1,-3.090025E-1,5.832687E-1,1.7829037E-1,-5.704706E-1,-1.440354E-1,4.1805074E-1,-4.1217707E-2,-5.489338E-1],"categories":[],"categories_nodes":[],"categories_segments":[],"categories_sizes":[],"default_left":[1,1,1,1,1,1,1,0,1,1,0,0,1,1,0,0,1,0,0,1,1,1,1,1,0,0,1,1,0,1,1,0,0,0,0,0,0,0,0,0,0,0,0],"id":20,"left_children":[1,3,5,7,9,11,13,-1,15,17,-1,-1,19,21,-1,-1,23,-1,-1,25,27,29,31,33,-1,-1,35,37,-1,39,41,-1,-1,-1,-1,-1,-1,-1,-1,-1,-1,-1,-1],"loss_changes":[3.4476215E-1,5.6370294E-1,4.1675964E-1,3.821286E-1,7.5884235E-1,8.549168E-1,5.677922E-1,0E0,5.97272E-1,2.695063E-1,0E0,0E0,7.267854E-1,5.766922E-1,0E0,0E0,1.0873132E0,0E0,0E0,3.3901942E-1,1.066311E0,4.3408096E-1,6.0962385E-1,4.2769265E-1,0E0,0E0,7.960176E-1,7.357651E-1,0E0,6.6401446E-1,1.573543E-1,0E0,0E0,0E0,0E0,0E0,0E0,0E0,0E0,0E0,0E0,0E0,0E0],"parents":[2147483647,0,0,1,1,2,2,3,3,4,4,5,5,6,6,8,8,9,9,12,12,13,13,16,16,19,19,20,20,21,21,22,22,23,23,26,26,27,27,29,29,30,30],"right_children":[2,4,6,8,10,12,14,-1,16,18,-1,-1,20,22,-1,-1,24,-1,-1,26,28,30,32,34,-1,-1,36,38,-1,40,42,-1,-1,-1,-1,-1,-1,-1,-1,-1,-1,-1,-1],"split_conditions":[-1.7278132E-1,5.2070355E-1,3.8561708E-1,-6.5712154E-1,1.6555955E0,-7.401015E-1,1.7666728E0,-1.8277279E-1,-9.078039E-1,-3.6671677E-1,-1.22905366E-1,-1.17113166E-1,3.39072E-3,9.778296E-1,-1.5762654E-1,-1.501505E-1,2.3341726E-1,1.39978E-1,-1.9054297E-2,-1.9523059E-1,3.145025E-4,1.477411E0,1.2696351E0,-7.252657E-1,-1.23019405E-1,2.556596E-1,9.2746794E-1,-2.9569048E-1,1.8411618E-1,1.177376E0,-9.284951E-4,1.6077526E-1,-5.9927892E-2,-1.7343586E-2,1.954915E-1,-9.270075E-2,1.7498061E-1,5.348711E-2,-1.7114118E-1,-4.3210622E-2,1.2541522E-1,-1.2365312E-2,-1.6468015E-1],"split_indices":[5,0,5,6,7,7,0,0,2,4,0,0,7,1,0,0,2,0,0,6,6,5,3,0,0,0,6,4,0,5,1,0,0,0,0,0,0,0,0,0,0,0,0],"split_type":[0,0,0,0,0,0,0,0,0,0,0,0,0,0,0,0,0,0,0,0,0,0,0,0,0,0,0,0,0,0,0,0,0,0,0,0,0,0,0,0,0,0,0],"sum_hessian":[3.7620605E1,1.2489053E1,2.5131554E1,7.9808006E0,4.508252E0,9.645437E0,1.5486115E1,1.900497E0,6.080303E0,3.4433062E0,1.064946E0,1.2289547E0,8.416483E0,1.4224038E1,1.2620771E0,1.7547545E0,4.3255486E0,2.4105694E0,1.0327369E0,3.7065814E0,4.7099013E0,1.0763539E1,3.4604988E0,2.6014054E0,1.7241434E0,1.5745192E0,2.1320622E0,3.6044307E0,1.1054708E0,8.342248E0,2.4212918E0,2.4139564E0,1.0465425E0,1.0470412E0,1.5543643E0,1.0466942E0,1.085368E0,1.7594E0,1.8450308E0,6.406167E0,1.9360808E0,1.0586524E0,1.3626393E0],"tree_param":{"num_deleted":"0","num_feature":"8","num_nodes":"43","size_leaf_vector":"0"}},{"base_weights":[-2.2996755E-2,-4.510532E-2,3.572151E-1,-1.1504637E-2,-6.012556E-1,4.5965392E-2,-3.0312327E-1,-2.3481345E-1,1.00427926E-1,-5.79075E-1,1.8738829E-1,-4.925274E-1,1.2426296E-1,-8.0774084E-2,2.1966279E-1,-1.2396491E-1,-7.186612E-1,-5.8213407E-1,-1.4747488E-1,3.1338862E-1,-2.2974266E-1,-1.3755058E-1,3.7380356E-1],"categories":[],"categories_nodes":[],"categories_segments":[],"categories_sizes":[],"default_left":[1,1,0,1,0,1,1,1,1,1,0,1,0,1,1,0,0,0,0,0,0,0,0],"id":21,"left_children":[1,3,-1,5,-1,7,9,11,13,15,-1,17,-1,19,21,-1,-1,-1,-1,-1,-1,-1,-1],"loss_changes":[3.2822046E-1,6.6538614E-1,0E0,5.9961736E-1,0E0,4.832852E-1,9.050789E-1,5.408645E-1,5.768633E-1,1.6569543E-1,0E0,1.3679743E-2,0E0,7.1798813E-1,9.256177E-1,0E0,0E0,0E0,0E0,0E0,0E0,0E0,0E0],"parents":[2147483647,0,0,1,1,3,3,5,5,6,6,7,7,8,8,9,9,11,11,13,13,14,14],"right_children":[2,4,-1,6,-1,8,10,12,14,16,-1,18,-1,20,22,-1,-1,-1,-1,-1,-1,-1,-1],"split_conditions":[2.1354525E0,2.2691698E0,1.0716454E-1,9.519639E-1,-1.8037668E-1,-7.2284544E-1,6.460472E-1,4.4697773E-1,-2.3152469E-1,-7.921953E-2,5.621649E-2,-1.637845E-1,3.727889E-2,-6.60493E-1,-6.588073E-1,-3.7189476E-2,-2.1559836E-1,-1.7464022E-1,-4.4242468E-2,9.401659E-2,-6.89228E-2,-4.1265175E-2,1.1214107E-1],"split_indices":[2,5,0,2,0,5,1,1,2,7,0,4,0,6,6,0,0,0,0,0,0,0,0],"split_type":[0,0,0,0,0,0,0,0,0,0,0,0,0,0,0,0,0,0,0,0,0,0,0],"sum_hessian":[3.6129486E1,3.497701E1,1.1524755E0,3.394675E1,1.0302594E0,2.9061838E1,4.884912E0,4.1833453E0,2.4878492E1,3.0106366E0,1.8742756E0,2.2190516E0,1.9642936E0,1.0001583E1,1.4876909E1,1.1498213E0,1.8608153E0,1.216143E0,1.0029086E0,2.4404812E0,7.5611024E0,4.516886E0,1.0360023E1],"tree_param":{"num_deleted":"0","num_feature":"8","num_nodes":"23","size_leaf_vector":"0"}},{"base_weights":[-2.705863E-2,-3.2940304E-1,3.0744765E-3,-6.553386E-2,-4.1665146E-1,3.634398E-2,-2.3916253E-1,7.489769E-4,4.0143028E-1,-4.5059875E-1,-1.8489541E-2,-3.7094004E-2,3.1562826E-1,2.5532246E-1,-2.8388062E-1,7.321959E-2,-2.3854224E-1,4.5645407E-1,4.5255706E-2,-2.8872708E-2,5.618117E-1,-6.2432005E-3,-5.876319E-1],"categories":[],"categories_nodes":[],"categories_segments":[],"categories_sizes":[],"default_left":[1,1,1,0,0,1,1,1,0,0,1,1,1,0,0,1,1,0,0,0,0,0,0],"id":22,"left_children":[1,3,5,-1,-1,7,9,11,-1,-1,13,15,17,-1,-1,19,21,-1,-1,-1,-1,-1,-1],"loss_changes":[3.3176896E-1,4.8659384E-2,2.8274226E-1,0E0,0E0,3.995209E-1,1.8941958E-1,3.576931E-1,0E0,0E0,2.9895815E-1,6.133638E-1,1.01958185E-1,0E0,0E0,9.186771E-1,7.848076E-1,0E0,0E0,0E0,0E0,0E0,0E0],"parents":[2147483647,0,0,1,1,2,2,5,5,6,6,7,7,10,10,11,11,12,12,15,15,16,16],"right_children":[2,4,6,-1,-1,8,10,12,-1,-1,14,16,18,-1,-1,20,22,-1,-1,-1,-1,-1,-1],"split_conditions":[-9.133301E-1,-1.2119342E0,1.7382059E0,-1.966016E-2,-1.2499544E-1,1.490375E0,2.068647E0,1.7024372E0,1.2042909E-1,-1.3517962E-1,2.0921126E-1,2.3341726E-1,2.2691698E0,7.659674E-2,-8.516419E-2,8.606725E-1,6.2731194E-1,1.3693623E-1,1.3576712E-2,-8.661813E-3,1.6854352E-1,-1.8729602E-3,-1.7628957E-1],"split_indices":[1,1,7,0,0,7,7,5,0,0,0,2,5,0,0,5,5,0,0,0,0,0,0],"split_type":[0,0,0,0,0,0,0,0,0,0,0,0,0,0,0,0,0,0,0,0,0,0,0],"sum_hessian":[3.5304646E1,2.29961E0,3.3005035E1,1.0065562E0,1.2930539E0,2.9766752E1,3.2382832E0,2.803542E1,1.7313318E0,1.1216513E0,2.1166317E0,2.5815094E1,2.2203264E0,1.0604609E0,1.0561708E0,1.7092001E1,8.723091E0,1.0073819E0,1.2129444E0,1.4916149E1,2.1758528E0,5.8488817E0,2.87421E0],"tree_param":{"num_deleted":"0","num_feature":"8","num_nodes":"23","size_leaf_vector":"0"}},{"base_weights":[-2.0542242E-2,-2.867017E-1,5.341542E-3,-3.5051352E-1,-7.975115E-2,-2.3226602E-1,3.2298446E-2,-4.720132E-1,7.357992E-2,1.688946E-1,-3.1919833E-2,3.551664E-2,4.4801563E-1,-1.7113207E-1,7.91527E-2,4.3517506E-1,-2.1464317E-1,4.3584112E-2,6.179215E-1,-3.0900434E-2,-6.901262E-1,2.7825168E-1,-2.1183491E-1,-7.0431674E-1,1.6472623E-1,-2.1589029E-1,1.7112619E-1,-2.5239882E-1,4.229472E-1,-5.433193E-1,5.2394114E-2],"categories":[],"categories_nodes":[],"categories_segments":[],"categories_sizes":[],"default_left":[1,1,1,0,0,1,1,0,0,1,1,1,1,1,1,0,1,0,0,1,0,1,1,0,0,0,0,0,0,0,0],"id":23,"left_children":[1,3,5,-1,-1,7,9,-1,-1,11,13,15,17,19,21,-1,23,-1,-1,25,-1,27,29,-1,-1,-1,-1,-1,-1,-1,-1],"loss_changes":[2.4751137E-1,1.40782595E-2,2.2221737E-1,0E0,0E0,2.9413635E-1,2.771865E-1,0E0,0E0,3.5888574E-1,3.524416E-1,8.830715E-1,1.9083601E-1,7.0957696E-1,8.048237E-1,0E0,1.1428313E0,0E0,0E0,3.7155426E-1,0E0,7.2687626E-1,5.363009E-1,0E0,0E0,0E0,0E0,0E0,0E0,0E0,0E0],"parents":[2147483647,0,0,1,1,2,2,5,5,6,6,9,9,10,10,11,11,12,12,13,13,14,14,16,16,19,19,21,21,22,22],"right_children":[2,4,6,-1,-1,8,10,-1,-1,12,14,16,18,20,22,-1,24,-1,-1,26,-1,28,30,-1,-1,-1,-1,-1,-1,-1,-1],"split_conditions":[-9.133301E-1,7.809866E-1,-1.0768737E0,-1.0515406E-1,-2.3925345E-2,-4.1377336E-1,-1.1705233E-1,-1.4160396E-1,2.2073977E-2,-2.8294355E-1,-4.5314783E-1,-4.0059447E-1,1.1891933E-1,-5.6946343E-1,7.809866E-1,1.3055253E-1,-7.921953E-2,1.3075234E-2,1.8537645E-1,-7.734372E-1,-2.0703787E-1,1.4837357E-1,1.6059086E-1,-2.1129502E-1,4.9417872E-2,-6.476709E-2,5.1337857E-2,-7.571965E-2,1.2688416E-1,-1.6299579E-1,1.5718235E-2],"split_indices":[1,3,2,0,0,0,1,0,0,1,6,2,5,6,3,0,7,0,0,6,0,1,5,0,0,0,0,0,0,0,0],"split_type":[0,0,0,0,0,0,0,0,0,0,0,0,0,0,0,0,0,0,0,0,0,0,0,0,0,0,0,0,0,0,0],"sum_hessian":[3.4705086E1,2.1828308E0,3.2522255E1,1.1381755E0,1.0446553E0,2.5377183E0,2.9984535E1,1.1180192E0,1.4196991E0,9.06747E0,2.0917065E1,6.898342E0,2.1691277E0,9.0427065E0,1.1874358E1,2.3709288E0,4.5274134E0,1.0134069E0,1.1557208E0,7.953279E0,1.0894281E0,7.0763555E0,4.7980027E0,1.6024693E0,2.9249442E0,4.1158724E0,3.8374066E0,1.3566581E0,5.7196975E0,1.6596594E0,3.1383433E0],"tree_param":{"num_deleted":"0","num_feature":"8","num_nodes":"31","size_leaf_vector":"0"}},{"base_weights":[-2.7454596E-2,-4.65335E-2,2.9972598E-1,-7.248033E-3,-3.6277732E-1,-6.8698E-2,3.8912907E-1,7.214786E-2,-7.4938166E-1,-1.027841E-1,2.8565192E-1,4.773426E-3,5.093519E-1,-1.8349014E-1,6.2180556E-2,1.7301819E-1,6.195354E-1,-1.2898535E-2,-3.0473426E-1,-2.741609E-1,1.8020058E-1],"categories":[],"categories_nodes":[],"categories_segments":[],"categories_sizes":[],"default_left":[1,1,0,1,1,1,1,0,0,1,0,0,1,1,1,0,0,0,0,0,0],"id":24,"left_children":[1,3,-1,5,7,9,11,-1,-1,13,-1,-1,15,17,19,-1,-1,-1,-1,-1,-1],"loss_changes":[2.3075566E-1,4.158569E-1,0E0,7.8138685E-1,6.764809E-1,3.6361873E-1,1.9666034E-1,0E0,0E0,3.5731092E-1,0E0,0E0,1.4083862E-2,3.6214155E-1,4.1785258E-1,0E0,0E0,0E0,0E0,0E0,0E0],"parents":[2147483647,0,0,1,1,3,3,4,4,5,5,6,6,9,9,12,12,13,13,14,14],"right_children":[2,4,-1,6,8,10,12,-1,-1,14,-1,-1,16,18,20,-1,-1,-1,-1,-1,-1],"split_conditions":[2.1354525E0,1.5274167E0,8.9917794E-2,1.3455298E0,8.3138114E-1,1.177376E0,-6.8108237E-1,2.164436E-2,-2.248145E-1,5.816624E-1,8.569558E-2,1.4320278E-3,2.2726528E-1,8.20171E-2,-3.9906737E-1,5.1905457E-2,1.8586062E-1,-3.8695605E-3,-9.142028E-2,-8.224827E-2,5.4060176E-2],"split_indices":[2,5,0,6,6,5,1,0,0,7,0,0,5,1,1,0,0,0,0,0,0],"split_type":[0,0,0,0,0,0,0,0,0,0,0,0,0,0,0,0,0,0,0,0,0],"sum_hessian":[3.373243E1,3.268428E1,1.0481465E0,2.9982605E1,2.701677E0,2.6674038E1,3.3085659E0,1.6541544E0,1.0475228E0,2.4980972E1,1.6930665E0,1.036036E0,2.2725296E0,1.6698988E1,8.281985E0,1.1950197E0,1.07751E0,7.3973002E0,9.301687E0,1.80759E0,6.474395E0],"tree_param":{"num_deleted":"0","num_feature":"8","num_nodes":"21","size_leaf_vector":"0"}},{"base_weights":[-1.6845062E-2,1.3959674E-2,-2.4634096E-1,-3.0939324E-2,2.180511E-1,-4.0427E-1,-3.7250414E-2,-2.1114333E-1,5.9648264E-2,-1.16397746E-1,4.630436E-1,-4.1926268E-1,2.228572E-1,3.3165294E-1,-6.0651463E-2,-4.203772E-1,2.292774E-1,-2.1864525E-3,6.5518045E-1,-6.0125726E-1,-8.392445E-2,6.2046E-1,-3.2358497E-1,4.44996E-1,1.2759224E-2,-2.2728074E-1,2.6422372E-1,-1.19471654E-1,-7.276438E-1,-4.214494E-1,2.6664585E-1,1.4047942E-1,5.678577E-1,-5.7376336E-2,-6.638687E-1,5.781494E-1,1.575564E-2],"categories":[],"categories_nodes":[],"categories_segments":[],"categories_sizes":[],"default_left":[1,1,1,1,1,0,0,1,1,1,1,1,1,1,1,0,0,0,0,1,1,0,0,1,0,1,1,0,0,0,0,0,0,0,0,0,0],"id":25,"left_children":[1,3,5,7,9,-1,-1,11,13,15,17,19,21,23,25,-1,-1,-1,-1,27,29,-1,-1,31,-1,33,35,-1,-1,-1,-1,-1,-1,-1,-1,-1,-1],"loss_changes":[2.4582013E-1,2.924108E-1,1.20693326E-1,4.4401878E-1,5.2468634E-1,0E0,0E0,9.1189224E-1,6.21125E-1,4.3562302E-1,3.1583273E-1,3.444947E-1,9.807241E-1,2.0348454E-1,7.9520196E-1,0E0,0E0,0E0,0E0,1.5862E-1,5.192857E-1,0E0,0E0,7.885605E-2,0E0,6.676313E-1,3.8607088E-1,0E0,0E0,0E0,0E0,0E0,0E0,0E0,0E0,0E0,0E0],"parents":[2147483647,0,0,1,1,2,2,3,3,4,4,7,7,8,8,9,9,10,10,11,11,12,12,13,13,14,14,19,19,20,20,23,23,25,25,26,26],"right_children":[2,4,6,8,10,-1,-1,12,14,16,18,20,22,24,26,-1,-1,-1,-1,28,30,-1,-1,32,-1,34,36,-1,-1,-1,-1,-1,-1,-1,-1,-1,-1],"split_conditions":[1.7382059E0,1.176899E0,7.4558187E-1,-4.1377336E-1,-6.245489E-2,-1.21281005E-1,-1.1175125E-2,-1.6182977E-1,-4.0059447E-1,-4.5651928E-1,-2.4779007E-1,3.0037507E-1,-2.9806036E-1,-1.4856458E-1,5.594371E-2,-1.2611316E-1,6.878322E-2,-6.559358E-4,1.9655414E-1,-1.1486885E-1,-7.252657E-1,1.86138E-1,-9.70755E-2,-5.323773E-1,3.8277672E-3,-2.2894526E-1,4.3860522E-1,-3.58415E-2,-2.1829315E-1,-1.2643482E-1,7.9993755E-2,4.2143825E-2,1.7035732E-1,-1.7212901E-2,-1.9916062E-1,1.7344482E-1,4.726692E-3],"split_indices":[7,1,1,0,2,0,0,7,2,6,5,6,6,4,6,0,0,0,0,3,0,0,0,6,0,6,6,0,0,0,0,0,0,0,0,0,0],"split_type":[0,0,0,0,0,0,0,0,0,0,0,0,0,0,0,0,0,0,0,0,0,0,0,0,0,0,0,0,0,0,0,0,0,0,0,0,0],"sum_hessian":[3.32852E1,3.017416E1,3.1110396E0,2.5428446E1,4.745714E0,1.2405593E0,1.8704804E0,8.06135E0,1.7367096E1,2.228455E0,2.5172591E0,5.471514E0,2.589836E0,4.7868533E0,1.2580242E1,1.0707529E0,1.1577023E0,1.0247073E0,1.4925517E0,3.032649E0,2.4388652E0,1.4206715E0,1.1691643E0,3.2398798E0,1.5469737E0,8.513865E0,4.0663767E0,1.0344837E0,1.9981654E0,1.1395437E0,1.2993215E0,1.5475708E0,1.692309E0,6.943229E0,1.5706364E0,1.2103325E0,2.856044E0],"tree_param":{"num_deleted":"0","num_feature":"8","num_nodes":"37","size_leaf_vector":"0"}},{"base_weights":[-1.3616123E-2,-2.0861724E-1,2.1201583E-2,-4.5582923E-1,8.656145E-2,3.3652002E-1,-3.5805884E-3,1.7571191E-1,-3.7130434E-2,-1.4438656E-1,5.3393792E-2,6.1692584E-2,-5.263126E-1,4.4538146E-1,-1.1709127E-2,-3.1902713E-1,2.0112273E-1,-1.6200681E-1,1.1123252E-1,5.3825926E-2,3.942572E-1,2.8566867E-1,-3.054147E-1,3.1286824E-1,-1.5146057E-1],"categories":[],"categories_nodes":[],"categories_segments":[],"categories_sizes":[],"default_left":[1,1,1,0,1,0,1,0,0,1,1,1,0,0,1,0,1,1,1,0,0,0,0,0,0],"id":26,"left_children":[1,3,5,-1,7,-1,9,-1,-1,11,13,15,-1,-1,17,-1,19,21,23,-1,-1,-1,-1,-1,-1],"loss_changes":[2.2911549E-1,4.120537E-1,2.2772603E-1,0E0,4.145453E-2,0E0,2.3125407E-1,0E0,0E0,6.8550885E-1,5.3010625E-1,3.977571E-1,0E0,0E0,3.6195007E-1,0E0,1.2708054E-1,6.510459E-1,6.2109756E-1,0E0,0E0,0E0,0E0,0E0,0E0],"parents":[2147483647,0,0,1,1,2,2,4,4,6,6,9,9,10,10,11,11,14,14,16,16,17,17,18,18],"right_children":[2,4,6,-1,8,-1,10,-1,-1,12,14,16,-1,-1,18,-1,20,22,24,-1,-1,-1,-1,-1,-1],"split_conditions":[-7.2284544E-1,4.4697773E-1,-5.8949655E-1,-1.3674878E-1,1.2838495E0,1.0095601E-1,-2.8294355E-1,5.2713577E-2,-1.113913E-2,-4.82013E-1,-1.1705233E-1,-6.5749127E-1,-1.5789378E-1,1.3361445E-1,-4.6831942E-1,-9.570814E-2,-5.815477E-1,-9.8752534E-1,6.995452E-1,1.614778E-2,1.1827716E-1,8.57006E-2,-9.162442E-2,9.386048E-2,-4.5438174E-2],"split_indices":[5,1,5,0,7,0,1,0,0,1,1,7,0,0,6,0,1,6,3,0,0,0,0,0,0],"split_type":[0,0,0,0,0,0,0,0,0,0,0,0,0,0,0,0,0,0,0,0,0,0,0,0,0],"sum_hessian":[3.209415E1,4.1060395E0,2.7988111E1,1.9383904E0,2.1676493E0,1.1228099E0,2.6865301E1,1.0153081E0,1.1523411E0,7.297094E0,1.9568207E1,5.2842793E0,2.0128143E0,1.9551243E0,1.7613083E1,1.0712122E0,4.213067E0,7.781882E0,9.831202E0,3.1156034E0,1.0974637E0,1.6473521E0,6.13453E0,5.453923E0,4.3772783E0],"tree_param":{"num_deleted":"0","num_feature":"8","num_nodes":"25","size_leaf_vector":"0"}},{"base_weights":[-8.406463E-3,-1.8660958E-1,2.61862E-2,-4.5647356E-1,2.0920035E-1,2.1679552E-1,-1.634584E-2,-1.1249975E-1,-5.8207285E-1,3.6805582E-1,-2.0194943E-1,-3.005844E-1,2.3392433E-2,-1.3360602E-2,5.3221166E-1,6.469586E-2,-2.7310666E-1,-1.3047856E-2,3.4151888E-1,-4.0213716E-1,4.824394E-2,5.3575164E-1,-1.545781E-1],"categories":[],"categories_nodes":[],"categories_segments":[],"categories_sizes":[],"default_left":[1,1,1,1,0,1,1,0,0,1,0,0,1,0,0,1,0,1,1,0,0,0,0],"id":27,"left_children":[1,3,5,7,-1,9,11,-1,-1,13,-1,-1,15,-1,-1,17,-1,19,21,-1,-1,-1,-1],"loss_changes":[2.0462798E-1,6.7126673E-1,2.3063213E-1,8.656472E-2,0E0,4.024422E-1,2.7620783E-1,0E0,0E0,2.6756734E-1,0E0,0E0,2.850803E-1,0E0,0E0,4.3433154E-1,0E0,4.1427514E-1,5.083799E-1,0E0,0E0,0E0,0E0],"parents":[2147483647,0,0,1,1,2,2,3,3,5,5,6,6,9,9,12,12,15,15,17,17,18,18],"right_children":[2,4,6,8,-1,10,12,-1,-1,14,-1,-1,16,-1,-1,18,-1,20,22,-1,-1,-1,-1],"split_conditions":[-8.6553645E-1,5.366624E-1,-4.0059447E-1,-6.5749127E-1,6.276011E-2,3.6403212E-1,-2.3152469E-1,-3.3749927E-2,-1.7462187E-1,-4.1377336E-1,-6.0584832E-2,-9.017532E-2,1.7666728E0,-4.008181E-3,1.596635E-1,1.176899E0,-8.1932E-2,-9.285247E-1,1.6555955E0,-1.2064115E-1,1.4473182E-2,1.607255E-1,-4.6373434E-2],"split_indices":[2,3,2,7,0,1,2,0,0,0,0,0,0,0,0,1,0,6,7,0,0,0,0],"split_type":[0,0,0,0,0,0,0,0,0,0,0,0,0,0,0,0,0,0,0,0,0,0,0],"sum_hessian":[3.1401768E1,4.390378E0,2.701139E1,2.5193892E0,1.870989E0,4.180237E0,2.2831154E1,1.1809293E0,1.3384598E0,3.1598694E0,1.0203673E0,1.9952798E0,2.0835875E1,1.2271632E0,1.9327062E0,1.8974463E1,1.8614119E0,1.5557982E1,3.416479E0,1.360473E0,1.419751E1,2.3977675E0,1.0187116E0],"tree_param":{"num_deleted":"0","num_feature":"8","num_nodes":"23","size_leaf_vector":"0"}},{"base_weights":[-1.2617995E-2,-1.8236157E-1,2.3104724E-2,-3.4048426E-1,1.530665E-1,7.861829E-2,-1.1416372E-1,-4.7498256E-1,-8.298343E-2,1.1305833E-2,4.9128693E-1,3.3365283E-2,-5.084971E-1,1.8386368E-1,-9.334422E-2,2.3224132E-1,-2.4507114E-1,-2.4084708E-2,6.695531E-1,1.2677309E-1,-3.0223492E-1,3.6593273E-1,-9.72565E-2,-4.3157202E-1,5.10263E-2,-2.647075E-1,3.0934143E-1,2.9112265E-1,-3.046481E-1,-5.042201E-1,2.463223E-1,6.1809935E-2,4.9845335E-1],"categories":[],"categories_nodes":[],"categories_segments":[],"categories_sizes":[],"default_left":[1,1,1,1,0,1,1,0,0,1,0,1,0,1,1,1,1,1,0,1,1,1,0,0,0,0,0,0,0,0,0,0,0],"id":28,"left_children":[1,3,5,7,-1,9,11,-1,-1,13,-1,15,-1,17,19,21,23,25,-1,27,29,31,-1,-1,-1,-1,-1,-1,-1,-1,-1,-1,-1],"loss_changes":[1.972698E-1,3.5167274E-1,2.1617158E-1,1.042628E-1,0E0,5.486858E-1,4.9618775E-1,0E0,0E0,3.454256E-1,0E0,4.4083473E-1,0E0,7.4323505E-1,5.891084E-1,2.3636703E-1,2.0841475E-1,5.637631E-1,0E0,5.522019E-1,8.379399E-1,1.0832599E-1,0E0,0E0,0E0,0E0,0E0,0E0,0E0,0E0,0E0,0E0,0E0],"parents":[2147483647,0,0,1,1,2,2,3,3,5,5,6,6,9,9,11,11,13,13,14,14,15,15,16,16,17,17,19,19,20,20,21,21],"right_children":[2,4,6,8,-1,10,12,-1,-1,14,-1,16,-1,18,20,22,24,26,-1,28,30,32,-1,-1,-1,-1,-1,-1,-1,-1,-1,-1,-1],"split_conditions":[-5.815477E-1,2.4715331E-1,8.2949317E-1,5.366624E-1,4.591995E-2,5.816624E-1,1.1440388E0,-1.4249477E-1,-2.489503E-2,8.20171E-2,1.4738609E-1,8.321959E-1,-1.5254915E-1,8.321959E-1,-1.02281064E-1,4.1895428E-1,-5.2394867E-1,1.066149E-1,2.0086594E-1,6.138243E-1,7.6066077E-1,-3.7280464E-1,-2.917695E-2,-1.2947161E-1,1.530789E-2,-7.941225E-2,9.2802435E-2,8.733679E-2,-9.139443E-2,-1.5126604E-1,7.389669E-2,1.854298E-2,1.4953601E-1],"split_indices":[1,4,7,3,0,7,5,0,0,1,0,0,0,0,0,5,6,2,0,2,5,5,0,0,0,0,0,0,0,0,0,0,0],"split_type":[0,0,0,0,0,0,0,0,0,0,0,0,0,0,0,0,0,0,0,0,0,0,0,0,0,0,0,0,0,0,0,0,0],"sum_hessian":[3.0838041E1,4.6478662E0,2.6190176E1,3.1485486E0,1.4993176E0,1.8952675E1,7.2375007E0,1.5134529E0,1.6350957E0,1.717807E1,1.7746046E0,5.93316E0,1.3043407E0,6.1992183E0,1.0978852E1,3.5578432E0,2.3753166E0,5.006214E0,1.1930041E0,5.537187E0,5.4416647E0,2.4522734E0,1.1055698E0,1.1766526E0,1.198664E0,3.0274794E0,1.9787347E0,4.2451873E0,1.2919999E0,4.036283E0,1.4053819E0,1.1893167E0,1.2629566E0],"tree_param":{"num_deleted":"0","num_feature":"8","num_nodes":"33","size_leaf_vector":"0"}},{"base_weights":[-8.136304E-3,-1.8105112E-1,2.5823507E-2,-4.0422398E-1,1.4786085E-1,2.2298963E-1,-3.7223375E-3,-1.0096917E-1,-5.1935464E-1,3.9411175E-1,-1.0123077E-1,-2.546516E-1,4.602157E-2,-4.8470104E-1,1.9849566E-1,-3.2450512E-2,1.8415141E-1,8.559861E-2,-4.399777E-1,3.5197407E-1,-2.8375873E-1,-5.599356E-3,5.0047994E-1,-6.5072006E-1,-9.872695E-3,5.000249E-1,2.1291804E-2],"categories":[],"categories_nodes":[],"categories_segments":[],"categories_sizes":[],"default_left":[1,1,1,1,0,1,1,0,0,0,0,1,1,0,0,1,1,1,1,1,0,0,0,0,0,0,0],"id":29,"left_children":[1,3,5,7,-1,9,11,-1,-1,-1,-1,13,15,-1,-1,17,19,21,23,25,-1,-1,-1,-1,-1,-1,-1],"loss_changes":[1.8644948E-1,4.4193578E-1,1.5665436E-1,6.520611E-2,0E0,2.3421538E-1,3.1436923E-1,0E0,0E0,0E0,0E0,5.303391E-1,2.3449135E-1,0E0,0E0,7.2534376E-1,7.114022E-1,4.538474E-1,2.9935735E-1,2.9182136E-1,0E0,0E0,0E0,0E0,0E0,0E0,0E0],"parents":[2147483647,0,0,1,1,2,2,3,3,5,5,6,6,11,11,12,12,15,15,16,16,17,17,18,18,19,19],"right_children":[2,4,6,8,-1,10,12,-1,-1,-1,-1,14,16,-1,-1,18,20,22,24,26,-1,-1,-1,-1,-1,-1,-1],"split_conditions":[-8.6553645E-1,5.366624E-1,-6.1193174E-1,-6.5749127E-1,4.4358257E-2,-3.4106735E-2,-5.561594E-1,-3.0290753E-2,-1.5580639E-1,1.1823353E-1,-3.0369231E-2,1.027597E0,1.7394505E-1,-1.4541031E-1,5.95487E-2,-2.30631E-1,1.4440738E0,-3.671754E-1,1.6861121E-1,8.62428E-1,-8.512762E-2,-1.6798069E-3,1.5014398E-1,-1.9521603E-1,-2.9618088E-3,1.5000749E-1,6.3875415E-3],"split_indices":[2,3,2,7,0,1,5,0,0,0,0,1,6,0,0,6,5,6,7,3,0,0,0,0,0,0,0],"split_type":[0,0,0,0,0,0,0,0,0,0,0,0,0,0,0,0,0,0,0,0,0,0,0,0,0,0,0],"sum_hessian":[2.9955267E1,4.2063346E0,2.5748934E1,2.369567E0,1.8367678E0,2.502427E0,2.3246506E1,1.1685629E0,1.2010039E0,1.4968362E0,1.0055909E0,3.1644468E0,2.008206E1,2.052713E0,1.1117339E0,1.3294485E1,6.7875743E0,1.092095E1,2.373535E0,5.178136E0,1.6094383E0,9.761672E0,1.1592776E0,1.2487438E0,1.124791E0,3.2230384E0,1.9550976E0],"tree_param":{"num_deleted":"0","num_feature":"8","num_nodes":"27","size_leaf_vector":"0"}},{"base_weights":[-1.0306082E-2,-1.8817247E-1,2.746472E-2,-3.2265252E-1,1.0586584E-1,7.354622E-2,-8.708826E-2,-4.146011E-1,-2.8539764E-2,1.6984595E-2,4.2085788E-1,3.8763132E-2,-4.2161864E-1,-3.2981686E-2,3.333773E-1,2.1622802E-1,-2.1662366E-1,1.6273862E-1,-1.8400316E-1,3.41094E-1,-8.216076E-2,-3.719333E-1,3.8497955E-2,-1.0596571E-2,6.086992E-1,7.523064E-2,-4.5060673E-1,9.888008E-2,4.2545056E-1],"categories":[],"categories_nodes":[],"categories_segments":[],"categories_sizes":[],"default_left":[1,1,1,1,0,1,1,0,0,1,0,1,0,1,0,1,1,1,1,1,0,0,0,0,0,0,0,0,0],"id":30,"left_children":[1,3,5,7,-1,9,11,-1,-1,13,-1,15,-1,17,-1,19,21,23,25,27,-1,-1,-1,-1,-1,-1,-1,-1,-1],"loss_changes":[2.0831728E-1,2.4863404E-1,1.4267579E-1,9.54977E-2,0E0,3.65144E-1,3.474013E-1,0E0,0E0,2.851133E-1,0E0,3.4730998E-1,0E0,4.9945852E-1,0E0,1.9240993E-1,1.4181037E-1,5.822688E-1,6.860078E-1,2.5450557E-2,0E0,0E0,0E0,0E0,0E0,0E0,0E0,0E0,0E0],"parents":[2147483647,0,0,1,1,2,2,3,3,5,5,6,6,9,9,11,11,13,13,15,15,16,16,17,17,18,18,19,19],"right_children":[2,4,6,8,-1,10,12,-1,-1,14,-1,16,-1,18,-1,20,22,24,26,28,-1,-1,-1,-1,-1,-1,-1,-1,-1],"split_conditions":[-5.815477E-1,2.4715331E-1,8.2949317E-1,5.6897175E-1,3.1759754E-2,5.816624E-1,1.1440388E0,-1.2438033E-1,-8.56193E-3,1.6774342E0,1.2625737E-1,8.321959E-1,-1.264856E-1,1.8155181E-1,1.000132E-1,4.1895428E-1,-5.2394867E-1,8.321959E-1,-1.02281064E-1,-3.7280464E-1,-2.464823E-2,-1.1158E-1,1.1549387E-2,-3.1789714E-3,1.8260977E-1,2.2569194E-2,-1.3518202E-1,2.9664027E-2,1.2763518E-1],"split_indices":[1,4,7,5,0,7,5,0,0,5,0,0,0,1,0,5,6,0,0,5,0,0,0,0,0,0,0,0,0],"split_type":[0,0,0,0,0,0,0,0,0,0,0,0,0,0,0,0,0,0,0,0,0,0,0,0,0,0,0,0,0],"sum_hessian":[2.9238829E1,4.4239693E0,2.481486E1,2.9688396E0,1.4551299E0,1.7951456E1,6.863404E0,1.9496521E0,1.0191876E0,1.6339397E1,1.6120584E0,5.6296415E0,1.2337621E0,1.4884519E1,1.4548788E0,3.4120114E0,2.2176301E0,6.4490776E0,8.435441E0,2.304524E0,1.1074874E0,1.0938584E0,1.1237718E0,5.3470387E0,1.1020391E0,4.6407723E0,3.7946684E0,1.1563766E0,1.1481475E0],"tree_param":{"num_deleted":"0","num_feature":"8","num_nodes":"29","size_leaf_vector":"0"}},{"base_weights":[-4.022705E-3,-1.3657032E-1,5.6719694E-2,-3.1283298E-1,1.7480619E-1,6.964294E-3,5.0240916E-1,-5.546937E-1,-2.1001697E-2,4.4450715E-1,-2.0674795E-1,1.14185646E-1,-1.8737377E-1,-3.1680226E-1,4.102378E-1,2.1896929E-1,-1.0546122E-1,-3.1729534E-1,2.260701E-1,-2.065802E-2,3.3643398E-1,1.492277E-1,-4.919181E-1,3.7573207E-2,-4.4257084E-1,2.9027942E-1,-3.967214E-1,-1.5902082E-2,5.0203544E-1,3.3819765E-1,-1.6015597E-1,-6.032857E-1,1.1740617E-2],"categories":[],"categories_nodes":[],"categories_segments":[],"categories_sizes":[],"default_left":[1,1,1,1,1,1,0,0,1,0,0,1,1,0,0,1,1,1,0,1,1,1,0,0,1,0,0,0,0,0,0,0,0],"id":31,"left_children":[1,3,5,7,9,11,-1,-1,13,-1,-1,15,17,-1,-1,19,21,23,-1,25,27,29,-1,-1,31,-1,-1,-1,-1,-1,-1,-1,-1],"loss_changes":[2.458543E-1,5.808713E-1,4.6189252E-1,4.45746E-1,5.145276E-1,4.3591434E-1,0E0,0E0,6.371613E-1,0E0,0E0,3.3245227E-1,4.720071E-1,0E0,0E0,2.7224854E-1,5.671341E-1,2.8719455E-1,0E0,5.878646E-1,3.8039458E-1,2.757914E-1,0E0,0E0,3.41228E-1,0E0,0E0,0E0,0E0,0E0,0E0,0E0,0E0],"parents":[2147483647,0,0,1,1,2,2,3,3,4,4,5,5,8,8,11,11,12,12,15,15,16,16,17,17,19,19,20,20,21,21,24,24],"right_children":[2,4,6,8,10,12,-1,-1,14,-1,-1,16,18,-1,-1,20,22,24,-1,26,28,30,-1,-1,32,-1,-1,-1,-1,-1,-1,-1,-1],"split_conditions":[-4.1377336E-1,-1.6182977E-1,1.9136221E0,1.8559377E-1,-2.8342966E-2,-1.4856458E-1,1.5072276E-1,-1.6640812E-1,6.8640804E-1,1.3335215E-1,-6.202439E-2,8.321959E-1,1.3226943E0,-9.504069E-2,1.2307134E-1,-1.7278132E-1,1.159934E0,-1.02281064E-1,6.782103E-2,-4.978192E-1,1.066149E-1,3.9395136E-1,-1.4757544E-1,1.1271963E-2,5.6897175E-1,8.708383E-2,-1.19016424E-1,-4.7706245E-3,1.5061064E-1,1.014593E-1,-4.8046794E-2,-1.809857E-1,3.5221854E-3],"split_indices":[0,7,6,5,6,4,0,0,6,0,0,0,4,0,0,5,7,0,0,5,2,5,0,0,5,0,0,0,0,0,0,0,0],"split_type":[0,0,0,0,0,0,0,0,0,0,0,0,0,0,0,0,0,0,0,0,0,0,0,0,0,0,0,0,0,0,0,0,0],"sum_hessian":[2.8574015E1,8.587233E0,1.9986782E1,5.480294E0,3.1069386E0,1.8893227E1,1.0935558E0,2.5041764E0,2.9761176E0,1.7236137E0,1.3833249E0,1.2441413E1,6.4518127E0,1.922668E0,1.0534496E0,8.42521E0,4.016204E0,5.0861E0,1.3657126E0,3.0425527E0,5.3826566E0,2.7908142E0,1.2253895E0,1.5096844E0,3.5764155E0,1.7903569E0,1.252196E0,2.0100403E0,3.3726163E0,1.6747512E0,1.116063E0,2.3996248E0,1.1767908E0],"tree_param":{"num_deleted":"0","num_feature":"8","num_nodes":"33","size_leaf_vector":"0"}},{"base_weights":[-3.5103348E-3,-7.9245895E-2,9.4714E-2,2.5822598E-2,-2.9746243E-1,4.2770877E-1,-6.6050637E-4,-3.478892E-1,1.3879374E-1,9.304174E-2,-4.104873E-1,3.911249E-1,-1.00548886E-1,-4.6261483E-1,-7.258005E-2,-1.5443167E-1,3.0001512E-1,-5.09961E-1,-6.577446E-2,-2.62352E-1,1.5682682E-1,-3.2819456E-1,1.8333784E-1,4.6971107E-1,-1.2888922E-1,2.0694716E-1,-3.9586735E-1,-1.244639E-1,3.703245E-1,-3.731066E-2,-4.4979385E-1,7.204151E-2,5.606373E-1,-6.013172E-1,-1.1340465E-1],"categories":[],"categories_nodes":[],"categories_segments":[],"categories_sizes":[],"default_left":[1,1,1,1,1,0,1,1,1,0,1,0,1,0,0,1,1,0,0,1,1,1,0,1,0,0,1,0,0,0,0,0,0,0,0],"id":32,"left_children":[1,3,5,7,9,-1,11,13,15,-1,17,-1,19,-1,-1,21,23,-1,-1,25,27,29,-1,31,-1,-1,33,-1,-1,-1,-1,-1,-1,-1,-1],"loss_changes":[2.1941349E-1,3.8893658E-1,4.0861607E-1,5.610045E-1,2.8024748E-1,0E0,4.6953756E-1,6.44694E-2,5.209739E-1,0E0,1.1863524E-1,0E0,4.390619E-1,0E0,0E0,3.0797178E-1,5.567859E-1,0E0,0E0,4.7297713E-1,3.051795E-1,9.4505936E-2,0E0,1.440407E-1,0E0,0E0,2.3369062E-1,0E0,0E0,0E0,0E0,0E0,0E0,0E0,0E0],"parents":[2147483647,0,0,1,1,2,2,3,3,4,4,6,6,7,7,8,8,10,10,12,12,15,15,16,16,19,19,20,20,21,21,23,23,26,26],"right_children":[2,4,6,8,10,-1,12,14,16,-1,18,-1,20,-1,-1,22,24,-1,-1,26,28,30,-1,32,-1,-1,34,-1,-1,-1,-1,-1,-1,-1,-1],"split_conditions":[3.4744298E-1,6.1064327E-1,5.133342E-1,-9.078039E-1,-7.1426064E-1,1.2831263E-1,-9.0323865E-1,3.737796E-1,-4.156565E-1,2.7912524E-2,1.394068E0,1.1733747E-1,5.606375E-1,-1.3878445E-1,-2.1774014E-2,8.7858164E-1,4.447545E-1,-1.5298831E-1,-1.973234E-2,-8.228571E-1,1.1271317E0,-6.67236E-1,5.5001352E-2,-5.394907E-1,-3.8666766E-2,6.208415E-2,-3.5874674E-1,-3.7339173E-2,1.1109735E-1,-1.1193198E-2,-1.3493817E-1,2.1612454E-2,1.681912E-1,-1.8039517E-1,-3.4021396E-2],"split_indices":[1,5,1,2,1,0,6,3,1,0,5,0,5,0,0,6,2,0,0,5,1,6,0,5,0,0,6,0,0,0,0,0,0,0,0],"split_type":[0,0,0,0,0,0,0,0,0,0,0,0,0,0,0,0,0,0,0,0,0,0,0,0,0,0,0,0,0,0,0,0,0,0,0],"sum_hessian":[2.7485773E1,1.5628603E1,1.1857169E1,1.1144387E1,4.4842157E0,1.8641331E0,9.993036E0,2.1041954E0,9.040192E0,1.0462376E0,3.4379783E0,1.437847E0,8.555189E0,1.005035E0,1.0991603E0,3.2220757E0,5.818116E0,2.2960331E0,1.1419451E0,5.241013E0,3.3141758E0,2.146284E0,1.0757915E0,4.10058E0,1.7175361E0,1.0389996E0,4.2020135E0,1.6099863E0,1.7041895E0,1.0179725E0,1.1283115E0,1.0966488E0,3.0039315E0,1.7791255E0,2.422888E0],"tree_param":{"num_deleted":"0","num_feature":"8","num_nodes":"35","size_leaf_vector":"0"}},{"base_weights":[-5.9701097E-3,-7.3283836E-2,8.146389E-2,-1.1982677E-1,2.629512E-1,1.9122301E-1,-1.6522117E-1,3.705317E-2,-3.341213E-1,-3.1167317E-2,4.4947365E-1,-4.6292117E-1,8.0005035E-2,-3.0296075E-1,1.5667106E-1,1.4466564E-1,-4.5481256E-1,2.9685944E-1,-2.0707498E-1,6.602118E-1,1.2387677E-1,3.3006728E-1,-1.8036751E-1,2.8283066E-1,-2.1012595E-1,-5.3982824E-1,-1.3390091E-1,-4.0565205E-1,-7.6114396E-3,3.9253816E-2,4.298008E-1,-7.245491E-1,-1.2556836E-1,-1.4024678E-1,1.19257E-1],"categories":[],"categories_nodes":[],"categories_segments":[],"categories_sizes":[],"default_left":[1,1,1,1,0,1,1,1,1,1,1,0,1,0,1,0,1,0,1,0,0,0,0,1,0,1,0,0,1,0,0,0,0,0,0],"id":33,"left_children":[1,3,5,7,-1,9,11,13,15,17,19,-1,21,-1,23,-1,25,-1,27,-1,-1,-1,-1,29,-1,31,-1,-1,33,-1,-1,-1,-1,-1,-1],"loss_changes":[1.6843446E-1,2.8382406E-1,3.695316E-1,5.116005E-1,0E0,5.367216E-1,3.5677493E-1,4.3276677E-1,4.3424213E-1,3.9760908E-1,2.1161556E-1,0E0,2.7141023E-1,0E0,4.1422692E-1,0E0,7.323468E-2,0E0,1.7043848E-1,0E0,0E0,0E0,0E0,2.0261633E-1,0E0,2.064476E-1,0E0,0E0,7.06523E-2,0E0,0E0,0E0,0E0,0E0,0E0],"parents":[2147483647,0,0,1,1,2,2,3,3,5,5,6,6,7,7,8,8,9,9,10,10,12,12,14,14,16,16,18,18,23,23,25,25,28,28],"right_children":[2,4,6,8,-1,10,12,14,16,18,20,-1,22,-1,24,-1,26,-1,28,-1,-1,-1,-1,30,-1,32,-1,-1,34,-1,-1,-1,-1,-1,-1],"split_conditions":[3.4744298E-1,2.2136827E0,3.3240402E-1,-2.2725952E-1,7.888536E-2,-4.7674808E-1,-3.943246E-2,-9.70668E-1,-8.227117E-1,-9.0323865E-1,-6.245489E-2,-1.3887636E-1,7.773294E-1,-9.088823E-2,8.2733524E-1,4.3399695E-2,2.0921126E-1,8.905783E-2,-6.245489E-2,1.9806355E-1,3.7163034E-2,9.902019E-2,-5.4110255E-2,-3.8247824E-1,-6.303779E-2,2.522682E-1,-4.0170275E-2,-1.21695615E-1,-7.1949375E-1,1.1776146E-2,1.2894025E-1,-2.1736474E-1,-3.7670508E-2,-4.2074036E-2,3.5777103E-2],"split_indices":[1,6,6,6,0,6,5,6,7,6,2,0,5,0,5,0,0,0,2,0,0,0,0,1,0,5,0,0,6,0,0,0,0,0,0],"split_type":[0,0,0,0,0,0,0,0,0,0,0,0,0,0,0,0,0,0,0,0,0,0,0,0,0,0,0,0,0,0,0,0,0,0,0],"sum_hessian":[2.6604153E1,1.512305E1,1.1481103E1,1.3849562E1,1.2734872E0,8.101349E0,3.3797538E0,8.473446E0,5.3761163E0,4.8253517E0,3.2759967E0,1.1255844E0,2.2541695E0,1.8062997E0,6.6671457E0,1.0423663E0,4.3337502E0,1.4443637E0,3.3809881E0,1.3648919E0,1.9111049E0,1.0133109E0,1.2408586E0,5.131193E0,1.5359527E0,2.8868084E0,1.4469419E0,1.1762503E0,2.204738E0,2.4077928E0,2.7234004E0,1.4785109E0,1.4082975E0,1.0263176E0,1.1784202E0],"tree_param":{"num_deleted":"0","num_feature":"8","num_nodes":"35","size_leaf_vector":"0"}},{"base_weights":[-7.850365E-3,-1.24049835E-1,4.4896364E-2,-3.5109308E-1,7.98857E-2,2.8338668E-1,-2.3120606E-2,-5.0240797E-1,7.757342E-3,2.477085E-1,-3.1464747E-1,4.0690562E-1,3.7957197E-3,8.070933E-2,-2.2829051E-1,-8.594408E-2,4.6347567E-1,1.887388E-1,-1.0817096E-1,-3.9552936E-1,2.2578056E-1,-6.0334496E-2,3.8739607E-1,-4.634534E-1,1.3532238E-1,-7.986342E-2,-5.231167E-1,-2.0601717E-1,1.2337116E-1,5.59507E-1,-4.0019963E-2,2.879186E-1,-1.2409736E-1],"categories":[],"categories_nodes":[],"categories_segments":[],"categories_sizes":[],"default_left":[1,1,1,1,1,1,1,0,0,1,0,0,0,1,1,0,0,1,1,1,0,1,1,0,1,0,0,0,0,0,0,0,0],"id":34,"left_children":[1,3,5,7,9,11,13,-1,-1,15,-1,-1,-1,17,19,-1,-1,21,23,25,-1,27,29,-1,31,-1,-1,-1,-1,-1,-1,-1,-1],"loss_changes":[1.6990894E-1,4.2795837E-1,3.1761077E-1,2.3588097E-1,4.3314478E-1,1.4801663E-1,3.5596976E-1,0E0,0E0,3.5106722E-1,0E0,0E0,0E0,2.5016493E-1,5.1345295E-1,0E0,0E0,3.9582032E-1,4.7211513E-1,1.3726074E-1,0E0,1.3795504E-1,3.4034115E-1,0E0,1.7752847E-1,0E0,0E0,0E0,0E0,0E0,0E0,0E0,0E0],"parents":[2147483647,0,0,1,1,2,2,3,3,4,4,5,5,6,6,9,9,13,13,14,14,17,17,18,18,19,19,21,21,22,22,24,24],"right_children":[2,4,6,8,10,12,14,-1,-1,16,-1,-1,-1,18,20,-1,-1,22,24,26,-1,28,30,-1,32,-1,-1,-1,-1,-1,-1,-1,-1],"split_conditions":[-4.1377336E-1,1.1891933E-1,-1.02281064E-1,3.2832623E-1,1.477411E0,-4.9227077E-1,-5.2906257E-1,-1.507224E-1,2.3272026E-3,-4.9227077E-1,-9.4394244E-2,1.2207169E-1,1.138716E-3,5.6897175E-1,1.1436882E0,-2.5783224E-2,1.390427E-1,-2.8946158E-1,7.93998E-1,7.809866E-1,6.7734174E-2,8.321959E-1,8.321959E-1,-1.3903603E-1,5.7629444E-2,-2.3959028E-2,-1.5693502E-1,-6.180515E-2,3.701135E-2,1.678521E-1,-1.2005989E-2,8.637558E-2,-3.722921E-2],"split_indices":[0,5,0,4,5,7,4,0,0,7,0,0,0,5,0,0,0,5,5,3,0,0,0,0,6,0,0,0,0,0,0,0,0],"split_type":[0,0,0,0,0,0,0,0,0,0,0,0,0,0,0,0,0,0,0,0,0,0,0,0,0,0,0,0,0,0,0,0,0],"sum_hessian":[2.5812815E1,7.6369777E0,1.8175837E1,3.272304E0,4.364674E0,3.3307385E0,1.4845098E1,2.0203454E0,1.2519586E0,3.3232212E0,1.0414526E0,1.994319E0,1.3364196E0,1.0259643E1,4.585455E0,1.541381E0,1.7818402E0,6.527188E0,3.7324545E0,3.445405E0,1.1400502E0,3.205044E0,3.3221438E0,1.1504601E0,2.5819943E0,1.4597541E0,1.9856509E0,1.7197733E0,1.4852709E0,2.1481044E0,1.1740392E0,1.556545E0,1.0254493E0],"tree_param":{"num_deleted":"0","num_feature":"8","num_nodes":"33","size_leaf_vector":"0"}},{"base_weights":[-8.945771E-3,-7.816288E-2,8.096399E-2,-3.4940207E-1,-2.6661212E-2,3.30386E-1,4.5794346E-3,3.3365068E-1,-9.7174086E-2,-1.1354061E-1,2.4306215E-1,-1.5389292E-1,1.5235229E-1,1.9881749E-1,-1.9998676E-1,4.5162144E-1,-3.852533E-2,-1.27931945E-2,-4.2786968E-1,-4.0540814E-1,2.9099084E-2,1.4710055E-1,-1.9972569E-1,-4.8573598E-1,-1.3187748E-1,2.4048446E-1,-2.7812877E-1],"categories":[],"categories_nodes":[],"categories_segments":[],"categories_sizes":[],"default_left":[1,1,1,0,1,0,1,0,1,1,1,1,0,0,1,0,0,1,0,1,1,0,0,0,0,0,0],"id":35,"left_children":[1,3,5,-1,7,-1,9,-1,11,13,15,17,-1,-1,19,-1,-1,21,-1,23,25,-1,-1,-1,-1,-1,-1],"loss_changes":[1.6879888E-1,2.0385095E-1,2.2419913E-1,0E0,3.8575727E-1,0E0,3.116506E-1,0E0,1.9901851E-1,2.402572E-1,2.322532E-1,4.0450883E-1,0E0,0E0,3.089388E-1,0E0,0E0,2.6942205E-1,0E0,1.0560274E-2,3.2134685E-1,0E0,0E0,0E0,0E0,0E0,0E0],"parents":[2147483647,0,0,1,1,2,2,4,4,6,6,8,8,9,9,10,10,11,11,14,14,17,17,19,19,20,20],"right_children":[2,4,6,-1,8,-1,10,-1,12,14,16,18,-1,-1,20,-1,-1,22,-1,24,26,-1,-1,-1,-1,-1,-1],"split_conditions":[3.4744298E-1,-7.2284544E-1,5.133342E-1,-1.04820624E-1,-5.061535E-1,9.911581E-2,7.439922E-1,1.00095205E-1,9.37123E-1,-9.0323865E-1,1.5440854E0,-5.493558E-1,4.5705687E-2,5.964525E-2,-3.5874674E-1,1.3548644E-1,-1.15575995E-2,5.6897175E-1,-1.2836091E-1,-7.414815E-2,5.2070355E-1,4.413017E-2,-5.9917707E-2,-1.457208E-1,-3.9563246E-2,7.214534E-2,-8.3438635E-2],"split_indices":[1,5,1,0,5,0,5,0,4,6,5,4,0,0,6,0,0,5,0,3,0,0,0,0,0,0,0],"split_type":[0,0,0,0,0,0,0,0,0,0,0,0,0,0,0,0,0,0,0,0,0,0,0,0,0,0,0],"sum_hessian":[2.5106833E1,1.4259667E1,1.0847166E1,1.3524667E0,1.2907201E1,1.7634835E0,9.083682E0,1.5017382E0,1.1405462E1,6.425198E0,2.6584845E0,9.605366E0,1.800097E0,1.1109768E0,5.3142214E0,1.1803851E0,1.4780992E0,7.031034E0,2.5743318E0,2.396026E0,2.9181952E0,3.9044354E0,3.1265986E0,1.2524248E0,1.143601E0,1.8574426E0,1.0607527E0],"tree_param":{"num_deleted":"0","num_feature":"8","num_nodes":"27","size_leaf_vector":"0"}},{"base_weights":[-7.581271E-3,2.0841189E-2,-1.999816E-1,-2.0949053E-2,4.2208079E-1,-2.6780018E-1,-3.305276E-2,-6.179145E-2,2.2620428E-1,-3.4364176E-1,1.4149277E-3,3.8191427E-2,2.9588807E-1,6.1015952E-2,-2.605343E-1,-2.7138231E-2,2.34092E-1,-6.719846E-3,-4.1770935E-1],"categories":[],"categories_nodes":[],"categories_segments":[],"categories_sizes":[],"default_left":[1,1,1,1,0,0,0,1,1,0,1,0,0,1,1,0,0,0,0],"id":36,"left_children":[1,3,5,7,-1,-1,-1,9,11,-1,13,-1,-1,15,17,-1,-1,-1,-1],"loss_changes":[1.4336947E-1,3.9592E-1,2.9308438E-2,2.3463614E-1,0E0,0E0,0E0,3.486761E-1,3.212574E-2,0E0,2.806954E-1,0E0,0E0,2.2952601E-1,1.3017814E-1,0E0,0E0,0E0,0E0],"parents":[2147483647,0,0,1,1,2,2,3,3,7,7,8,8,10,10,13,13,14,14],"right_children":[2,4,6,8,-1,-1,-1,10,12,-1,14,-1,-1,16,18,-1,-1,-1,-1],"split_conditions":[1.7382059E0,1.490375E0,-1.22775495E-1,1.2696351E0,1.2662424E-1,-8.034006E-2,-9.915829E-3,-5.815477E-1,5.9440978E-2,-1.0309253E-1,8.2949317E-1,1.1457428E-2,8.8766426E-2,2.8351772E-1,4.1895428E-1,-8.14147E-3,7.02276E-2,-2.0159539E-3,-1.253128E-1],"split_indices":[7,7,5,3,0,0,0,1,4,0,7,0,0,6,5,0,0,0,0],"split_type":[0,0,0,0,0,0,0,0,0,0,0,0,0,0,0,0,0,0,0],"sum_hessian":[2.4455215E1,2.2084454E1,2.370762E0,2.0859652E1,1.2248026E0,1.2561468E0,1.1146152E0,1.8545046E1,2.3146048E0,2.5842998E0,1.5960747E1,1.0445058E0,1.270099E0,1.3627228E1,2.333519E0,9.58727E0,4.0399585E0,1.2911909E0,1.0423281E0],"tree_param":{"num_deleted":"0","num_feature":"8","num_nodes":"19","size_leaf_vector":"0"}},{"base_weights":[-6.79575E-3,-1.1928055E-1,4.3898728E-2,-3.238633E-1,6.919549E-2,2.552474E-1,-1.8526917E-2,-4.611815E-1,4.138936E-2,2.143129E-1,-2.1407229E-1,3.4224596E-2,4.050619E-1,7.3652625E-2,-2.0315665E-1,4.415291E-1,-3.459981E-2,1.8222147E-1,-8.2152486E-2,-4.653299E-1,5.602843E-2,-3.8615026E-2,3.826713E-1,-3.124788E-1,1.1273318E-1,-1.3456215E-1,1.8745698E-1,1.5601416E-1,-1.6574346E-1,2.7182046E-1,-1.4041862E-1],"categories":[],"categories_nodes":[],"categories_segments":[],"categories_sizes":[],"default_left":[1,1,1,1,1,1,1,0,0,1,0,0,0,1,1,0,0,1,1,0,1,1,0,0,1,0,0,0,0,0,0],"id":37,"left_children":[1,3,5,7,9,11,13,-1,-1,15,-1,-1,-1,17,19,-1,-1,21,23,-1,25,27,-1,-1,29,-1,-1,-1,-1,-1,-1],"loss_changes":[1.4845085E-1,3.336355E-1,2.4278797E-1,2.2203758E-1,2.5244337E-1,1.2461096E-1,2.6789403E-1,0E0,0E0,2.3146635E-1,0E0,0E0,0E0,1.9506182E-1,3.8044524E-1,0E0,0E0,3.062777E-1,2.6241902E-1,0E0,1.13272786E-1,1.258584E-1,0E0,0E0,1.7817868E-1,0E0,0E0,0E0,0E0,0E0,0E0],"parents":[2147483647,0,0,1,1,2,2,3,3,4,4,5,5,6,6,9,9,13,13,14,14,17,17,18,18,20,20,21,21,24,24],"right_children":[2,4,6,8,10,12,14,-1,-1,16,-1,-1,-1,18,20,-1,-1,22,24,-1,26,28,-1,-1,30,-1,-1,-1,-1,-1,-1],"split_conditions":[-4.1377336E-1,1.1891933E-1,-1.02281064E-1,-2.4444002E-1,1.3440621E0,-4.4977635E-1,-5.2906257E-1,-1.3835445E-1,1.2416809E-2,-1.036758E0,-6.422169E-2,1.0267379E-2,1.21518575E-1,3.9395136E-1,6.580911E-1,1.3245873E-1,-1.0379944E-2,-2.8946158E-1,7.93998E-1,-1.3959897E-1,4.8015594E-1,-7.8118557E-1,1.1480139E-1,-9.3743645E-2,5.7629444E-2,-4.0368646E-2,5.6237098E-2,4.680425E-2,-4.972304E-2,8.154614E-2,-4.2125586E-2],"split_indices":[0,5,0,7,5,6,4,0,0,0,0,0,0,5,4,0,0,5,5,0,1,5,0,0,6,0,0,0,0,0,0],"split_type":[0,0,0,0,0,0,0,0,0,0,0,0,0,0,0,0,0,0,0,0,0,0,0,0,0,0,0,0,0,0,0],"sum_hessian":[2.4114973E1,7.0714245E0,1.7043549E1,3.046381E0,4.0250435E0,3.1819375E0,1.3861612E1,2.0231376E0,1.0232433E0,2.8225067E0,1.202537E0,1.7817501E0,1.4001874E0,9.646508E0,4.215104E0,1.0710154E0,1.7514913E0,5.5851145E0,4.0613933E0,1.7000732E0,2.5150309E0,3.0415654E0,2.543549E0,1.58489E0,2.4765034E0,1.016751E0,1.4982798E0,1.1119666E0,1.9295989E0,1.4755094E0,1.0009941E0],"tree_param":{"num_deleted":"0","num_feature":"8","num_nodes":"31","size_leaf_vector":"0"}},{"base_weights":[-5.273287E-3,-3.867543E-2,1.2827551E-1,-1.6578397E-1,2.00532E-2,3.3501494E-1,-5.1470604E-2,-3.1240568E-1,1.2877443E-1,2.462927E-1,-4.5821946E-2,-2.317258E-1,1.1141799E-1,-4.8263633E-1,-2.7794972E-2,4.034507E-1,-9.082819E-3,5.2982487E-2,-2.271345E-1,-4.960824E-2,2.6485127E-1,7.621324E-2,-3.7009284E-1,1.1047659E-1,-2.5068974E-1,-5.3566426E-1,-6.8125846E-3],"categories":[],"categories_nodes":[],"categories_segments":[],"categories_sizes":[],"default_left":[1,1,1,1,1,0,1,1,0,1,1,0,0,0,0,0,0,1,1,1,0,0,1,0,0,0,0],"id":38,"left_children":[1,3,5,7,9,-1,11,13,-1,15,17,-1,-1,-1,-1,-1,-1,19,21,23,-1,-1,25,-1,-1,-1,-1],"loss_changes":[1.1455371E-1,1.5576434E-1,2.0850848E-1,3.2360554E-1,2.3274516E-1,0E0,1.3210876E-1,2.1297187E-1,0E0,1.4444953E-1,2.3330772E-1,0E0,0E0,0E0,0E0,0E0,0E0,2.0453896E-1,2.2534344E-1,2.4578892E-1,0E0,0E0,1.9246843E-1,0E0,0E0,0E0,0E0],"parents":[2147483647,0,0,1,1,2,2,3,3,4,4,6,6,7,7,9,9,10,10,17,17,18,18,19,19,22,22],"right_children":[2,4,6,8,10,-1,12,14,-1,16,18,-1,-1,-1,-1,-1,-1,20,22,24,-1,-1,26,-1,-1,-1,-1],"split_conditions":[1.176899E0,-4.1377336E-1,3.39072E-3,-1.6182977E-1,-1.02281064E-1,1.0050449E-1,2.2080004E-2,3.0037507E-1,3.8632333E-2,-5.696643E-1,-5.2906257E-1,-6.951774E-2,3.34254E-2,-1.447909E-1,-8.338492E-3,1.2103521E-1,-2.724846E-3,-7.256794E-1,-6.245489E-2,5.6897175E-1,7.945538E-2,2.2863973E-2,9.37123E-1,3.314298E-2,-7.520693E-2,-1.6069928E-1,-2.0437755E-3],"split_indices":[1,0,7,7,0,0,2,6,0,2,4,0,0,0,0,0,0,3,2,5,0,0,4,0,0,0,0],"split_type":[0,0,0,0,0,0,0,0,0,0,0,0,0,0,0,0,0,0,0,0,0,0,0,0,0,0,0],"sum_hessian":[2.3567835E1,1.9420853E1,4.146984E0,5.5613456E0,1.3859506E1,1.5269277E0,2.6200562E0,3.672636E0,1.8887098E0,2.507849E0,1.1351657E1,1.0431198E0,1.5769365E0,1.8627281E0,1.8099078E0,1.1935226E0,1.3143265E0,7.8057675E0,3.5458896E0,5.7751756E0,2.0305915E0,1.2853502E0,2.2605395E0,3.466231E0,2.3089447E0,1.2268571E0,1.0336825E0],"tree_param":{"num_deleted":"0","num_feature":"8","num_nodes":"27","size_leaf_vector":"0"}},{"base_weights":[-5.937599E-3,-1.690471E-1,2.8082773E-2,-3.4803954E-1,1.1033086E-1,6.76339E-2,-1.2040022E-1,1.2517749E-1,-3.028073E-1,-3.9201793E-1,1.2032779E-1,6.5140575E-2,4.6298444E-1,-1.2900488E-1,3.1291404E-1,1.4913815E-1,-9.74534E-2,-1.2494498E-1,2.505669E-1,-3.042756E-1,9.699569E-2],"categories":[],"categories_nodes":[],"categories_segments":[],"categories_sizes":[],"default_left":[1,1,1,0,0,1,1,1,0,0,1,1,0,0,0,1,1,0,0,0,0],"id":39,"left_children":[1,3,5,-1,-1,7,9,11,-1,-1,13,15,-1,-1,-1,17,19,-1,-1,-1,-1],"loss_changes":[1.3846059E-1,2.534784E-1,1.3026886E-1,0E0,0E0,4.0160203E-1,3.5669753E-1,2.8369346E-1,0E0,0E0,1.9761536E-1,2.0988703E-1,0E0,0E0,0E0,3.0448502E-1,2.4978405E-1,0E0,0E0,0E0,0E0],"parents":[2147483647,0,0,1,1,2,2,5,5,6,6,7,7,10,10,11,11,15,15,16,16],"right_children":[2,4,6,-1,-1,8,10,12,-1,-1,14,16,-1,-1,-1,18,20,-1,-1,-1,-1],"split_conditions":[-8.6553645E-1,5.366624E-1,9.519639E-1,-1.0441186E-1,3.309926E-2,1.477411E0,-7.276967E-2,7.8289413E-1,-9.0842195E-2,-1.1760538E-1,1.4591733E0,7.809866E-1,1.3889533E-1,-3.8701467E-2,9.3874216E-2,-6.5712154E-1,1.1067523E0,-3.7483495E-2,7.517007E-2,-9.128268E-2,2.9098708E-2],"split_indices":[2,3,2,0,0,5,5,2,0,0,2,3,0,0,0,6,3,0,0,0,0],"split_type":[0,0,0,0,0,0,0,0,0,0,0,0,0,0,0,0,0,0,0,0,0],"sum_hessian":[2.3096622E1,3.3010166E0,1.9795607E1,1.8621832E0,1.4388334E0,1.6061766E1,3.7338407E0,1.4475289E1,1.5864764E0,1.4590737E0,2.2747672E0,1.3303714E1,1.1715754E0,1.1352087E0,1.1395583E0,8.826577E0,4.477136E0,2.3215044E0,6.505073E0,1.895846E0,2.5812902E0],"tree_param":{"num_deleted":"0","num_feature":"8","num_nodes":"21","size_leaf_vector":"0"}},{"base_weights":[-9.0469895E-3,-1.3624707E-1,4.416829E-2,-2.7205664E-1,1.5579435E-1,3.39515E-1,1.4564457E-3,-8.1940256E-2,-4.9878773E-1,-2.9419675E-1,5.501534E-2,-2.8428978E-1,8.05693E-2,2.350381E-1,-3.908163E-2,-2.5761792E-2,1.4774838E-1,4.0832576E-1,-5.2783728E-2,-2.5241306E-1,3.7464593E-2,4.851232E-1,1.2977698E-1,1.4916807E-1,-1.9324361E-1],"categories":[],"categories_nodes":[],"categories_segments":[],"categories_sizes":[],